~o
<STREAMINFO> 1 39
<VECSIZE> 39<NULLD><MFCC_E_D_A_Z><DIAGC>
~s "silst"
<NUMMIXES> 20
<MIXTURE> 1 1.804985e-02
<MEAN> 39
 -3.187487e+00 -5.313806e-01 6.108064e-01 -1.904714e-01 2.623597e+00 3.808133e+00 5.172019e+00 5.104695e+00 4.933521e+00 3.246381e+00 3.209147e+00 1.198130e+00 -3.235907e-02 -7.783726e-01 -8.640186e-01 -1.250998e-01 1.106999e-01 5.032145e-01 1.257857e+00 1.370876e+00 1.558467e+00 1.299079e+00 1.100742e+00 9.246940e-01 2.530524e-01 -4.254078e-03 1.306037e+00 3.046227e-01 4.211514e-01 6.133257e-01 2.729943e-01 -1.810905e-01 -3.350063e-01 -4.685771e-01 -7.342438e-01 -3.630033e-01 -1.599851e-01 1.722871e-01 1.048332e-01
<VARIANCE> 39
 7.063914e+00 5.101765e+01 1.529957e+01 2.050271e+01 2.517304e+01 2.715216e+01 3.183830e+01 3.787832e+01 4.538470e+01 4.112250e+01 2.168987e+01 2.330116e+01 8.067541e-03 1.202681e+00 2.804667e+00 2.114518e+00 2.019341e+00 1.986066e+00 2.211947e+00 2.859869e+00 4.635393e+00 2.919312e+00 2.517281e+00 2.441949e+00 3.030616e+00 8.357512e-03 1.314622e-01 5.571905e-01 2.830810e-01 2.406161e-01 4.163909e-01 5.628244e-01 5.334674e-01 9.807376e-01 8.506852e-01 7.638085e-01 5.219398e-01 4.174142e-01 2.822939e-04
<GCONST> 9.428892e+01
<MIXTURE> 2 2.385346e-02
<MEAN> 39
 1.438483e+00 -3.120004e-01 -3.759253e-02 -2.156430e+00 -3.832983e-02 3.868522e+00 8.135733e+00 1.064835e+01 1.043345e+01 7.685195e+00 3.578544e-01 -2.910106e+00 4.934138e-01 5.053307e-01 2.687578e-01 -2.540506e+00 -1.800422e+00 -2.148980e+00 -2.535891e+00 -1.169672e+00 -1.033557e+00 9.034367e-01 2.209548e+00 2.353773e+00 2.050860e+00 1.511226e-01 -3.890464e-01 6.751871e-02 4.516296e-01 3.955370e-01 2.868350e-01 1.288374e-02 -6.603225e-01 -9.322794e-01 -9.708740e-01 -5.990501e-01 1.779868e-01 6.404067e-01 -1.419204e-02
<VARIANCE> 39
 2.657268e+01 1.046633e+02 4.866862e+01 5.503265e+01 3.411007e+01 5.725589e+01 5.580750e+01 3.754650e+01 8.043043e+01 1.074316e+02 1.383445e+02 7.802222e+01 4.381754e-02 3.621180e+00 8.242769e+00 4.810247e+00 5.175161e+00 4.522408e+00 5.023062e+00 5.515013e+00 5.162267e+00 7.011161e+00 8.485524e+00 8.901145e+00 6.928699e+00 9.591495e-03 3.218991e-01 7.382433e-01 5.404869e-01 6.176684e-01 4.143123e-01 6.558650e-01 8.640721e-01 6.012984e-01 1.346155e+00 1.959583e+00 2.505277e+00 1.342572e+00 5.455732e-04
<GCONST> 1.247697e+02
<MIXTURE> 3 3.637421e-02
<MEAN> 39
 -5.326652e+00 -1.296519e+00 2.926410e+00 6.250499e+00 3.450017e+00 7.292493e+00 3.521951e+00 4.925571e+00 2.957749e+00 4.366101e+00 3.442168e+00 1.502944e+00 2.430743e-01 -3.008344e+00 -8.991639e-01 -1.747005e+00 1.048153e+00 8.335107e-01 1.979348e+00 2.475242e+00 3.077759e+00 2.181683e+00 1.952626e+00 1.087754e+00 2.923504e-01 -8.503522e-02 5.561801e-01 7.993485e-01 -5.188937e-02 -4.858756e-01 -3.249121e-01 -7.659552e-01 -5.089234e-01 -4.978084e-01 -3.000491e-01 -5.230315e-01 -2.792706e-01 -2.200870e-01 4.497815e-02
<VARIANCE> 39
 1.834336e+01 3.758025e+01 1.637741e+01 2.369369e+01 1.885101e+01 2.527108e+01 2.298662e+01 2.913291e+01 2.684726e+01 2.444380e+01 2.558135e+01 2.261771e+01 2.038970e-02 1.799763e+00 2.860945e+00 2.232298e+00 2.257893e+00 2.452791e+00 3.195214e+00 3.396631e+00 2.964377e+00 2.751316e+00 2.558199e+00 3.509762e+00 3.002387e+00 2.803746e-03 2.791102e-01 5.257903e-01 3.411594e-01 5.232837e-01 3.673073e-01 5.037311e-01 4.796405e-01 5.771173e-01 6.114146e-01 5.439800e-01 4.720205e-01 5.018631e-01 2.881872e-04
<GCONST> 9.454900e+01
<MIXTURE> 4 2.980678e-02
<MEAN> 39
 6.200566e+00 4.734043e+00 5.396955e+00 9.706118e-01 1.086461e-01 -7.935063e-01 -2.863999e+00 -4.096369e+00 -1.525690e+00 -2.352840e+00 -2.970347e+00 -8.375170e-01 5.739176e-01 2.287080e+00 1.686881e+00 -5.911368e-01 -1.687399e+00 -1.226514e+00 -1.043224e+00 -1.409024e+00 -6.699672e-01 -8.591679e-01 -8.819303e-02 -1.149127e-01 -2.498001e-01 1.562500e-01 -9.200748e-01 -5.556853e-01 -5.718835e-01 -2.181284e-01 1.119527e-01 2.535101e-01 3.694442e-01 6.088072e-01 5.694135e-01 4.066594e-01 5.280269e-01 3.349249e-01 -2.981447e-02
<VARIANCE> 39
 2.698771e+01 3.630376e+01 4.614998e+01 3.760280e+01 3.580557e+01 3.251205e+01 3.967009e+01 3.679031e+01 3.464345e+01 2.882868e+01 2.943045e+01 1.960527e+01 2.342364e-02 3.937373e+00 2.459562e+00 5.202786e+00 3.738533e+00 3.548277e+00 3.326540e+00 3.773342e+00 3.576224e+00 4.349934e+00 3.295781e+00 3.597030e+00 3.060051e+00 3.954093e-03 4.195502e-01 2.260641e-01 4.463267e-01 6.923854e-01 4.331774e-01 5.443079e-01 6.658031e-01 5.673882e-01 5.909498e-01 4.894280e-01 4.927647e-01 3.824563e-01 3.413002e-04
<GCONST> 1.028764e+02
<MIXTURE> 5 3.637587e-02
<MEAN> 39
 -5.326698e+00 -1.296495e+00 2.926419e+00 6.250600e+00 3.450070e+00 7.292495e+00 3.521927e+00 4.925486e+00 2.957656e+00 4.366062e+00 3.442188e+00 1.502975e+00 2.430779e-01 -3.008361e+00 -8.991743e-01 -1.747020e+00 1.048145e+00 8.335214e-01 1.979357e+00 2.475254e+00 3.077764e+00 2.181692e+00 1.952625e+00 1.087759e+00 2.923498e-01 -8.503555e-02 5.561870e-01 7.993411e-01 -5.189762e-02 -4.858986e-01 -3.249237e-01 -7.659630e-01 -5.089196e-01 -4.977971e-01 -3.000343e-01 -5.230253e-01 -2.792738e-01 -2.200897e-01 4.497804e-02
<VARIANCE> 39
 1.834354e+01 3.758056e+01 1.637778e+01 2.369365e+01 1.885130e+01 2.527130e+01 2.298691e+01 2.913330e+01 2.684733e+01 2.444398e+01 2.558137e+01 2.261754e+01 2.038996e-02 1.799784e+00 2.860955e+00 2.232325e+00 2.257929e+00 2.452806e+00 3.195231e+00 3.396652e+00 2.964389e+00 2.751324e+00 2.558202e+00 3.509795e+00 3.002418e+00 2.803754e-03 2.791156e-01 5.257968e-01 3.411674e-01 5.232921e-01 3.673141e-01 5.037394e-01 4.796469e-01 5.771244e-01 6.114197e-01 5.439841e-01 4.720249e-01 5.018595e-01 2.881928e-04
<GCONST> 9.454939e+01
<MIXTURE> 6 7.989748e-02
<MEAN> 39
 -2.461618e+00 -4.097338e-01 2.716147e+00 3.108400e+00 3.745501e+00 4.996906e+00 2.646282e+00 4.394967e+00 4.141261e+00 2.437515e+00 2.076175e+00 7.643538e-01 -1.587737e-03 -3.815256e-01 1.412349e-01 1.148607e-01 2.978444e-01 1.462572e-01 2.516254e-01 1.512668e-01 2.231755e-01 6.541121e-02 -7.627422e-03 -2.935603e-02 -5.493727e-02 -9.091294e-03 1.847471e-01 1.271750e-01 4.126938e-03 3.630661e-02 -8.158951e-02 -1.284775e-01 -1.148888e-01 -1.564572e-01 -1.550430e-01 -6.865782e-02 1.554872e-02 7.050407e-02 2.306068e-02
<VARIANCE> 39
 1.225645e+01 3.971825e+01 2.042774e+01 2.330346e+01 2.312613e+01 2.448152e+01 2.487926e+01 2.645387e+01 2.417378e+01 2.349508e+01 2.412687e+01 1.697810e+01 1.710449e-02 1.010491e+00 1.272508e+00 1.142197e+00 1.408180e+00 1.517194e+00 1.658897e+00 1.793074e+00 2.320153e+00 1.959270e+00 1.885118e+00 1.772727e+00 1.470271e+00 2.078498e-03 2.228927e-01 3.410216e-01 2.412279e-01 2.659677e-01 3.353833e-01 3.601979e-01 4.072229e-01 4.432088e-01 4.370802e-01 4.152813e-01 3.538579e-01 2.803123e-01 7.129244e-04
<GCONST> 8.389923e+01
<MIXTURE> 7 2.980776e-02
<MEAN> 39
 6.200824e+00 4.734065e+00 5.396579e+00 9.705181e-01 1.087986e-01 -7.937526e-01 -2.864063e+00 -4.096350e+00 -1.525873e+00 -2.352892e+00 -2.970332e+00 -8.376310e-01 5.739300e-01 2.287210e+00 1.686889e+00 -5.912269e-01 -1.687462e+00 -1.226455e+00 -1.043274e+00 -1.409048e+00 -6.699446e-01 -8.592550e-01 -8.813888e-02 -1.148853e-01 -2.498129e-01 1.562535e-01 -9.200990e-01 -5.556938e-01 -5.718576e-01 -2.181265e-01 1.119313e-01 2.535333e-01 3.694430e-01 6.087998e-01 5.694249e-01 4.066674e-01 5.280232e-01 3.349406e-01 -2.981589e-02
<VARIANCE> 39
 2.698798e+01 3.630352e+01 4.615010e+01 3.760167e+01 3.580276e+01 3.251034e+01 3.966776e+01 3.679018e+01 3.464182e+01 2.882792e+01 2.942876e+01 1.960455e+01 2.342243e-02 3.937280e+00 2.459480e+00 5.202904e+00 3.738384e+00 3.547722e+00 3.326391e+00 3.773209e+00 3.576119e+00 4.349709e+00 3.295795e+00 3.596933e+00 3.060029e+00 3.953835e-03 4.195422e-01 2.260610e-01 4.463163e-01 6.923636e-01 4.331309e-01 5.442830e-01 6.657522e-01 5.673637e-01 5.909311e-01 4.894078e-01 4.927371e-01 3.824411e-01 3.412804e-04
<GCONST> 1.028749e+02
<MIXTURE> 8 2.333528e-02
<MEAN> 39
 6.429599e+00 5.496771e+00 1.802896e+00 -4.015250e+00 -3.478451e+00 -3.010787e+00 -4.353228e+00 5.316210e-01 3.024482e+00 5.110830e+00 6.457296e+00 5.859035e+00 5.967048e-01 1.902402e+00 7.191093e-01 -2.060918e+00 -2.526406e+00 -1.819883e+00 -2.336015e+00 -1.689776e+00 -1.693319e+00 -1.692305e+00 -1.205910e+00 -8.033216e-01 -6.446447e-01 1.598909e-01 -9.789745e-01 -3.851024e-01 4.363439e-02 5.172412e-01 8.003997e-01 8.143067e-01 8.592951e-01 5.715648e-01 -7.029699e-02 -3.972511e-01 -6.945357e-01 -6.867080e-01 -3.278319e-02
<VARIANCE> 39
 3.578836e+01 4.709184e+01 6.229751e+01 4.032959e+01 3.532043e+01 4.174808e+01 4.746147e+01 4.061233e+01 4.808738e+01 4.638284e+01 4.212211e+01 4.174388e+01 2.503634e-02 3.875156e+00 3.422350e+00 4.471776e+00 3.451376e+00 3.423651e+00 4.204849e+00 4.390944e+00 3.335654e+00 3.998538e+00 4.357201e+00 4.138734e+00 4.786331e+00 3.986069e-03 3.719602e-01 2.834486e-01 7.401798e-01 6.324640e-01 5.713953e-01 6.434572e-01 8.284249e-01 8.013729e-01 7.698105e-01 8.271431e-01 5.989096e-01 7.041352e-01 3.818457e-04
<GCONST> 1.106780e+02
<MIXTURE> 9 1.231562e-01
<MEAN> 39
 -5.550849e+00 -2.811896e+00 1.187577e+00 4.376225e+00 2.655293e+00 6.122380e+00 5.100204e+00 6.333822e+00 5.609419e+00 4.437188e+00 3.495737e+00 1.974178e+00 2.166749e-01 -2.348879e+00 -5.304893e-01 -1.474983e+00 2.519965e-01 1.291867e-01 5.695540e-01 7.033547e-01 1.099098e+00 8.256987e-01 5.942094e-01 4.727815e-01 1.684570e-01 -5.246275e-02 5.729133e-01 7.090311e-01 1.835206e-01 -1.346996e-01 -1.410106e-01 -4.665896e-01 -5.462539e-01 -7.199541e-01 -5.863784e-01 -4.305759e-01 -3.490632e-01 -1.200684e-01 4.319868e-02
<VARIANCE> 39
 2.723265e+01 4.240438e+01 3.777338e+01 3.078327e+01 4.132441e+01 3.435293e+01 3.821138e+01 4.486589e+01 3.774648e+01 3.713295e+01 3.963707e+01 3.579987e+01 2.350839e-02 2.664446e+00 3.082893e+00 4.145772e+00 3.555318e+00 3.050635e+00 3.309684e+00 3.819154e+00 4.326383e+00 3.600027e+00 3.473732e+00 3.505279e+00 3.878829e+00 3.716085e-03 3.890688e-01 5.373985e-01 5.476956e-01 5.594347e-01 7.141158e-01 5.493449e-01 6.684126e-01 7.124787e-01 6.933624e-01 7.778214e-01 7.557285e-01 7.153640e-01 4.806215e-04
<GCONST> 1.074010e+02
<MIXTURE> 10 8.793288e-02
<MEAN> 39
 -3.188561e+00 -3.767954e+00 -7.590538e-01 1.560171e+00 1.451437e+00 1.730245e+00 1.116860e+00 6.047381e-01 1.930358e+00 5.261421e-01 1.373688e+00 1.600209e+00 1.295549e-01 -1.141381e+00 -3.111272e-01 -6.970812e-01 -1.843768e-01 -4.239456e-01 -2.298774e-01 -1.714493e-01 3.173253e-02 4.797084e-02 2.160007e-01 2.713651e-01 2.366562e-02 -3.191013e-02 2.882822e-01 4.731862e-01 2.967762e-01 1.961118e-01 1.833808e-01 1.426041e-01 4.079690e-02 5.304103e-02 8.074832e-02 2.323143e-02 -1.270391e-01 -8.644937e-02 2.821729e-02
<VARIANCE> 39
 2.003430e+01 4.336061e+01 2.604561e+01 2.783985e+01 2.884924e+01 2.780915e+01 3.051085e+01 3.476432e+01 2.918493e+01 3.202449e+01 3.101123e+01 2.299541e+01 2.819993e-02 2.351503e+00 2.584742e+00 2.120337e+00 1.998143e+00 2.040491e+00 2.180078e+00 2.295188e+00 2.533761e+00 2.784241e+00 2.375332e+00 2.466970e+00 1.931665e+00 5.173905e-03 2.142919e-01 3.691230e-01 3.039760e-01 3.403091e-01 3.889711e-01 4.086429e-01 4.040750e-01 4.795685e-01 4.729508e-01 4.542664e-01 4.423571e-01 3.809746e-01 4.977527e-04
<GCONST> 9.400405e+01
<MIXTURE> 11 8.793668e-02
<MEAN> 39
 -3.188700e+00 -3.768016e+00 -7.591757e-01 1.560164e+00 1.451327e+00 1.730221e+00 1.116903e+00 6.048236e-01 1.930340e+00 5.261918e-01 1.373754e+00 1.600235e+00 1.295635e-01 -1.141460e+00 -3.111494e-01 -6.971352e-01 -1.843884e-01 -4.239587e-01 -2.298793e-01 -1.714632e-01 3.173101e-02 4.798342e-02 2.160064e-01 2.713961e-01 2.367909e-02 -3.191156e-02 2.882968e-01 4.732106e-01 2.967917e-01 1.961190e-01 1.833903e-01 1.426052e-01 4.079603e-02 5.302997e-02 8.074227e-02 2.322812e-02 -1.270481e-01 -8.645499e-02 2.821839e-02
<VARIANCE> 39
 2.003507e+01 4.336099e+01 2.604668e+01 2.784047e+01 2.885026e+01 2.780948e+01 3.051145e+01 3.476460e+01 2.918543e+01 3.202486e+01 3.101134e+01 2.299568e+01 2.819975e-02 2.351614e+00 2.584859e+00 2.120447e+00 1.998188e+00 2.040524e+00 2.180145e+00 2.295271e+00 2.533821e+00 2.784311e+00 2.375381e+00 2.467043e+00 1.931699e+00 5.174018e-03 2.142979e-01 3.691366e-01 3.039895e-01 3.403183e-01 3.889861e-01 4.086547e-01 4.040860e-01 4.795744e-01 4.729577e-01 4.542781e-01 4.423664e-01 3.809806e-01 4.977547e-04
<GCONST> 9.400499e+01
<MIXTURE> 12 7.494030e-02
<MEAN> 39
 -2.721250e+00 -1.519156e+00 3.962198e+00 5.008251e+00 5.613722e+00 5.618576e+00 4.989723e+00 4.833238e+00 4.578408e+00 5.394742e+00 3.953498e+00 2.395047e+00 2.181589e-01 1.737268e+00 1.119101e+00 -6.541955e-01 -1.256540e+00 -1.483748e+00 -1.510978e+00 -1.273836e+00 -1.282486e+00 -8.441941e-01 1.192609e-02 -3.725904e-01 6.139887e-02 1.525816e-01 4.360664e-01 9.523622e-02 -3.823288e-01 -5.724084e-01 -5.675050e-01 -4.290539e-01 -4.458582e-01 -3.952289e-01 -5.404649e-01 -4.189978e-01 -3.137347e-01 -9.055114e-02 3.073433e-02
<VARIANCE> 39
 2.403281e+01 6.151935e+01 4.315718e+01 3.746675e+01 3.696679e+01 4.913004e+01 3.806310e+01 4.858792e+01 4.055006e+01 3.523957e+01 4.098703e+01 3.317770e+01 5.835926e-02 2.615654e+00 7.333734e+00 4.984728e+00 4.525351e+00 3.899062e+00 4.762209e+00 5.495371e+00 4.808701e+00 4.095635e+00 4.237393e+00 4.493502e+00 3.885964e+00 5.066233e-03 4.294417e-01 7.597941e-01 6.198015e-01 6.092838e-01 6.061719e-01 8.385929e-01 7.573382e-01 8.198280e-01 8.063006e-01 7.099265e-01 7.787960e-01 6.770929e-01 1.146646e-03
<GCONST> 1.145089e+02
<MIXTURE> 13 2.980855e-02
<MEAN> 39
 6.200483e+00 4.734173e+00 5.397223e+00 9.710512e-01 1.086826e-01 -7.937933e-01 -2.864140e+00 -4.096646e+00 -1.525830e+00 -2.353209e+00 -2.970560e+00 -8.377036e-01 5.739251e-01 2.287106e+00 1.686950e+00 -5.910264e-01 -1.687383e+00 -1.226555e+00 -1.043311e+00 -1.409081e+00 -6.699898e-01 -8.591924e-01 -8.824620e-02 -1.149456e-01 -2.498483e-01 1.562533e-01 -9.200908e-01 -5.556987e-01 -5.719092e-01 -2.182031e-01 1.119287e-01 2.535315e-01 3.694448e-01 6.088268e-01 5.694439e-01 4.067008e-01 5.280586e-01 3.349544e-01 -2.981538e-02
<VARIANCE> 39
 2.698705e+01 3.630320e+01 4.614594e+01 3.760051e+01 3.580388e+01 3.251113e+01 3.966734e+01 3.679076e+01 3.464300e+01 2.882773e+01 2.942937e+01 1.960486e+01 2.342273e-02 3.937213e+00 2.459505e+00 5.202605e+00 3.738459e+00 3.547997e+00 3.326469e+00 3.773245e+00 3.576186e+00 4.349864e+00 3.295712e+00 3.597056e+00 3.060079e+00 3.953788e-03 4.195451e-01 2.260598e-01 4.462910e-01 6.923473e-01 4.331491e-01 5.442894e-01 6.657609e-01 5.673748e-01 5.909469e-01 4.894038e-01 4.927564e-01 3.824525e-01 3.412816e-04
<GCONST> 1.028751e+02
<MIXTURE> 14 2.333447e-02
<MEAN> 39
 6.429387e+00 5.496799e+00 1.803126e+00 -4.015411e+00 -3.478776e+00 -3.011048e+00 -4.353612e+00 5.316575e-01 3.024701e+00 5.111080e+00 6.457793e+00 5.859513e+00 5.967023e-01 1.902259e+00 7.190821e-01 -2.060819e+00 -2.526351e+00 -1.819828e+00 -2.335968e+00 -1.689734e+00 -1.693273e+00 -1.692306e+00 -1.205922e+00 -8.032898e-01 -6.445596e-01 1.598859e-01 -9.789743e-01 -3.850930e-01 4.362194e-02 5.172499e-01 8.004462e-01 8.143526e-01 8.593497e-01 5.715842e-01 -7.031531e-02 -3.972838e-01 -6.945845e-01 -6.867663e-01 -3.278309e-02
<VARIANCE> 39
 3.578917e+01 4.709263e+01 6.229781e+01 4.033078e+01 3.531978e+01 4.174924e+01 4.746114e+01 4.061341e+01 4.808965e+01 4.638523e+01 4.212384e+01 4.174719e+01 2.503746e-02 3.875149e+00 3.422281e+00 4.471692e+00 3.451434e+00 3.423738e+00 4.204919e+00 4.390977e+00 3.335756e+00 3.998734e+00 4.357340e+00 4.138854e+00 4.786433e+00 3.986334e-03 3.719811e-01 2.834577e-01 7.401950e-01 6.324814e-01 5.713992e-01 6.434681e-01 8.284380e-01 8.013943e-01 7.698503e-01 8.271893e-01 5.989327e-01 7.041914e-01 3.818572e-04
<GCONST> 1.106791e+02
<MIXTURE> 15 2.333446e-02
<MEAN> 39
 6.429764e+00 5.497242e+00 1.803618e+00 -4.015183e+00 -3.478919e+00 -3.011422e+00 -4.354167e+00 5.306067e-01 3.023467e+00 5.109550e+00 6.456674e+00 5.858854e+00 5.967208e-01 1.902185e+00 7.191070e-01 -2.060748e+00 -2.526361e+00 -1.819796e+00 -2.335920e+00 -1.689712e+00 -1.693211e+00 -1.692344e+00 -1.206092e+00 -8.034706e-01 -6.449306e-01 1.598855e-01 -9.790452e-01 -3.851447e-01 4.354596e-02 5.171924e-01 8.004696e-01 8.143783e-01 8.594148e-01 5.717179e-01 -7.015412e-02 -3.970881e-01 -6.944592e-01 -6.867159e-01 -3.278575e-02
<VARIANCE> 39
 3.578782e+01 4.709143e+01 6.229823e+01 4.033022e+01 3.532253e+01 4.174905e+01 4.746245e+01 4.061555e+01 4.808914e+01 4.638324e+01 4.212057e+01 4.174375e+01 2.503592e-02 3.875176e+00 3.422254e+00 4.471745e+00 3.451495e+00 3.423680e+00 4.204946e+00 4.391087e+00 3.335738e+00 3.998614e+00 4.356969e+00 4.138770e+00 4.786243e+00 3.986162e-03 3.719936e-01 2.834544e-01 7.401890e-01 6.324831e-01 5.714175e-01 6.434878e-01 8.284834e-01 8.014959e-01 7.698553e-01 8.271325e-01 5.989013e-01 7.041314e-01 3.818409e-04
<GCONST> 1.106788e+02
<MIXTURE> 16 1.906537e-02
<MEAN> 39
 1.755139e+00 1.191344e+01 -1.471570e+00 -9.024217e-01 -4.658389e+00 -2.323413e+00 6.762096e-01 3.369860e+00 1.946841e+00 2.216150e+00 1.337985e+00 2.728039e+00 6.735538e-01 3.825438e-01 3.728475e+00 -1.737830e+00 -2.315034e+00 -2.996502e+00 -3.079692e+00 -1.503980e+00 -1.748008e+00 -1.542443e+00 -1.381360e+00 -1.095704e+00 2.591074e-01 1.962571e-01 -5.210646e-01 -1.195905e+00 3.130735e-01 2.232152e-01 5.283544e-01 4.466458e-01 -8.939042e-02 -1.607008e-01 -1.580691e-01 -2.076353e-01 -1.342850e-01 -3.048553e-01 -3.807162e-02
<VARIANCE> 39
 9.521757e+00 4.768590e+01 1.188556e+01 1.851241e+01 2.717934e+01 2.905945e+01 4.752633e+01 3.446024e+01 2.278445e+01 3.387496e+01 2.433318e+01 3.883196e+01 1.461645e-02 1.411249e+00 4.644614e+00 3.530183e+00 2.383648e+00 2.696080e+00 3.041301e+00 3.371516e+00 3.944311e+00 1.946502e+00 3.237061e+00 6.319144e+00 6.077152e+00 3.347137e-03 1.479515e-01 3.111743e-01 2.335516e-01 4.253795e-01 5.045843e-01 5.188027e-01 6.044911e-01 5.543447e-01 4.802271e-01 3.951245e-01 4.752873e-01 5.363845e-01 3.743629e-04
<GCONST> 9.628730e+01
<MIXTURE> 17 3.637697e-02
<MEAN> 39
 -5.326704e+00 -1.296492e+00 2.926446e+00 6.250635e+00 3.450100e+00 7.292518e+00 3.521926e+00 4.925463e+00 2.957654e+00 4.366058e+00 3.442172e+00 1.502958e+00 2.430796e-01 -3.008363e+00 -8.991678e-01 -1.747024e+00 1.048144e+00 8.335255e-01 1.979364e+00 2.475268e+00 3.077773e+00 2.181700e+00 1.952624e+00 1.087757e+00 2.923424e-01 -8.503545e-02 5.561904e-01 7.993406e-01 -5.190363e-02 -4.859085e-01 -3.249307e-01 -7.659701e-01 -5.089203e-01 -4.977942e-01 -3.000352e-01 -5.230249e-01 -2.792731e-01 -2.200884e-01 4.497805e-02
<VARIANCE> 39
 1.834365e+01 3.758064e+01 1.637807e+01 2.369374e+01 1.885155e+01 2.527159e+01 2.298722e+01 2.913366e+01 2.684771e+01 2.444422e+01 2.558154e+01 2.261775e+01 2.039007e-02 1.799796e+00 2.860967e+00 2.232329e+00 2.257951e+00 2.452811e+00 3.195242e+00 3.396649e+00 2.964403e+00 2.751334e+00 2.558197e+00 3.509808e+00 3.002437e+00 2.803768e-03 2.791190e-01 5.257992e-01 3.411742e-01 5.232993e-01 3.673187e-01 5.037497e-01 4.796544e-01 5.771320e-01 6.114274e-01 5.439897e-01 4.720285e-01 5.018628e-01 2.881967e-04
<GCONST> 9.454972e+01
<MIXTURE> 18 7.989947e-02
<MEAN> 39
 -2.461610e+00 -4.096994e-01 2.716158e+00 3.108404e+00 3.745492e+00 4.996908e+00 2.646266e+00 4.394958e+00 4.141257e+00 2.437505e+00 2.076183e+00 7.643528e-01 -1.588980e-03 -3.815184e-01 1.412369e-01 1.148622e-01 2.978422e-01 1.462554e-01 2.516237e-01 1.512657e-01 2.231753e-01 6.540962e-02 -7.629973e-03 -2.935665e-02 -5.493755e-02 -9.091090e-03 1.847440e-01 1.271710e-01 4.125724e-03 3.630587e-02 -8.158890e-02 -1.284761e-01 -1.148859e-01 -1.564537e-01 -1.550407e-01 -6.865561e-02 1.554978e-02 7.050414e-02 2.306048e-02
<VARIANCE> 39
 1.225631e+01 3.971814e+01 2.042759e+01 2.330331e+01 2.312603e+01 2.448143e+01 2.487913e+01 2.645372e+01 2.417359e+01 2.349494e+01 2.412671e+01 1.697798e+01 1.710431e-02 1.010478e+00 1.272495e+00 1.142185e+00 1.408166e+00 1.517181e+00 1.658887e+00 1.793062e+00 2.320133e+00 1.959259e+00 1.885109e+00 1.772715e+00 1.470262e+00 2.078461e-03 2.228910e-01 3.410182e-01 2.412256e-01 2.659655e-01 3.353812e-01 3.601964e-01 4.072200e-01 4.432054e-01 4.370766e-01 4.152792e-01 3.538550e-01 2.803099e-01 7.129199e-04
<GCONST> 8.389891e+01
<MIXTURE> 19 7.989947e-02
<MEAN> 39
 -2.461610e+00 -4.096994e-01 2.716158e+00 3.108404e+00 3.745492e+00 4.996908e+00 2.646266e+00 4.394958e+00 4.141257e+00 2.437505e+00 2.076183e+00 7.643528e-01 -1.588980e-03 -3.815184e-01 1.412369e-01 1.148622e-01 2.978422e-01 1.462554e-01 2.516237e-01 1.512657e-01 2.231753e-01 6.540962e-02 -7.629973e-03 -2.935665e-02 -5.493755e-02 -9.091090e-03 1.847440e-01 1.271710e-01 4.125724e-03 3.630587e-02 -8.158890e-02 -1.284761e-01 -1.148859e-01 -1.564537e-01 -1.550407e-01 -6.865561e-02 1.554978e-02 7.050414e-02 2.306048e-02
<VARIANCE> 39
 1.225631e+01 3.971814e+01 2.042759e+01 2.330331e+01 2.312603e+01 2.448143e+01 2.487913e+01 2.645372e+01 2.417359e+01 2.349494e+01 2.412671e+01 1.697798e+01 1.710431e-02 1.010478e+00 1.272495e+00 1.142185e+00 1.408166e+00 1.517181e+00 1.658887e+00 1.793062e+00 2.320133e+00 1.959259e+00 1.885109e+00 1.772715e+00 1.470262e+00 2.078461e-03 2.228910e-01 3.410182e-01 2.412256e-01 2.659655e-01 3.353812e-01 3.601964e-01 4.072200e-01 4.432054e-01 4.370766e-01 4.152792e-01 3.538550e-01 2.803099e-01 7.129199e-04
<GCONST> 8.389891e+01
<MIXTURE> 20 5.680418e-02
<MEAN> 39
 -1.853229e+00 -5.386796e+00 -2.884595e+00 3.134240e-01 2.267398e+00 3.345941e+00 4.766950e+00 2.019816e+00 4.110593e-01 2.451792e+00 6.062548e+00 5.891976e+00 3.635810e-01 -6.586250e-01 -5.550020e-01 -1.324881e-01 6.081384e-01 -8.024446e-02 1.082727e-01 1.760360e-01 -5.536478e-02 -5.987608e-01 2.931837e-01 2.042448e-01 -1.446248e-01 -1.293002e-03 2.584184e-01 4.717990e-01 3.565507e-01 6.437317e-02 -9.845637e-02 -2.505009e-02 -2.488444e-01 1.739248e-02 1.408975e-01 -5.096966e-02 -7.268569e-01 -6.865700e-01 2.214159e-02
<VARIANCE> 39
 2.122184e+01 7.512762e+01 4.361499e+01 6.894170e+01 6.172729e+01 8.984461e+01 7.697806e+01 5.388408e+01 5.731381e+01 9.035711e+01 8.815367e+01 5.021478e+01 3.504045e-02 2.399573e+00 4.680261e+00 4.617237e+00 4.842817e+00 3.353910e+00 6.176165e+00 6.664767e+00 6.260075e+00 8.686330e+00 7.845942e+00 8.477131e+00 5.791450e+00 8.598506e-03 3.664599e-01 7.910332e-01 5.344284e-01 1.089296e+00 1.107811e+00 1.368433e+00 1.273294e+00 1.021015e+00 1.139528e+00 1.781697e+00 1.569631e+00 1.127537e+00 1.062275e-03
<GCONST> 1.265857e+02
~h "#i"
<BEGINHMM>
<NUMSTATES> 14
<STATE> 2
<NUMMIXES> 20
<MIXTURE> 1 2.965271e-03
<MEAN> 39
 -4.407539e+00 1.164301e+01 -4.891330e+00 -3.006032e+00 -8.097879e+00 -2.506873e+00 -3.017620e+00 -3.966665e+00 5.477893e+00 6.524878e+00 1.150527e+01 1.169218e+01 8.983516e-01 1.797674e-01 5.302970e-01 8.343130e-01 8.455788e-01 1.161916e+00 2.013275e+00 9.780564e-01 7.793828e-01 2.036262e+00 3.637002e+00 1.679800e+00 1.891355e+00 2.109826e-02 2.437943e-01 -1.752941e-02 2.403026e-02 5.422647e-02 1.282171e-01 -9.230968e-02 2.495130e-01 2.613319e-01 -1.775230e-01 -9.926009e-01 -9.091481e-01 -8.849232e-01 -6.247284e-03
<VARIANCE> 39
 7.109624e-01 3.775141e+00 6.503468e+00 3.816576e+00 5.929082e+00 1.326487e+01 1.320634e+01 1.096192e+01 7.122506e+00 3.628925e+01 7.968666e+00 4.191252e+00 4.426656e-03 1.177162e+00 4.865781e-02 5.949437e-02 2.580327e-01 2.833592e-01 1.950727e-01 5.488648e-01 1.738271e-01 2.540368e-01 1.258231e+00 1.869199e+00 7.084606e+00 3.754082e-05 6.415269e-02 3.882393e-02 7.430263e-02 1.141433e-01 1.828454e-01 3.462380e-01 3.899282e-01 2.010378e-01 2.342491e-01 2.455237e-01 1.109221e-01 3.789264e-01 1.932184e-05
<GCONST> 3.488062e+01
<MIXTURE> 2 8.334210e-03
<MEAN> 39
 -5.252656e+00 1.029169e+01 -5.325680e+00 -3.377106e+00 -7.190701e+00 -4.636291e+00 3.148910e+00 4.407411e+00 1.424003e+01 1.438536e+01 1.089039e+01 6.688856e+00 9.005531e-01 -6.622785e-01 -1.264487e-01 -1.843340e-01 -3.337617e-01 -5.670807e-01 2.616776e-02 -1.246175e-01 5.170416e-02 1.769165e+00 2.492597e+00 1.174977e+00 8.175907e-01 2.677429e-02 5.358555e-01 -4.755295e-02 2.676259e-01 1.911699e-01 2.276646e-01 4.030659e-01 2.902472e-01 2.274396e-01 -5.129144e-01 -7.674786e-01 -9.069388e-01 -8.715949e-01 -1.685525e-02
<VARIANCE> 39
 1.391171e+01 2.539170e+01 1.359298e+01 2.829572e+01 1.755875e+01 9.316600e+00 2.545592e+01 3.431302e+01 7.552516e+01 5.594686e+01 2.816114e+01 9.541421e+01 2.317216e-03 7.403161e-01 8.194381e-01 9.964327e-01 1.140765e+00 9.741542e-01 7.601992e-01 1.579201e+00 1.089383e+00 3.521369e+00 3.572752e+00 4.865172e+00 3.126771e+00 2.605333e-04 9.838689e-02 1.548874e-01 3.381355e-01 3.485874e-01 2.886273e-01 2.725606e-01 4.644212e-01 3.814860e-01 8.607948e-01 7.789636e-01 7.784640e-01 6.669285e-01 2.546791e-04
<GCONST> 8.249013e+01
<MIXTURE> 3 8.331701e-03
<MEAN> 39
 -5.254124e+00 1.029232e+01 -5.317954e+00 -3.376609e+00 -7.186869e+00 -4.630363e+00 3.143236e+00 4.379687e+00 1.420194e+01 1.435951e+01 1.088957e+01 6.726646e+00 9.005012e-01 -6.644886e-01 -1.269221e-01 -1.832698e-01 -3.334602e-01 -5.638101e-01 2.720250e-02 -1.276848e-01 4.878218e-02 1.769002e+00 2.499666e+00 1.184510e+00 8.253059e-01 2.685679e-02 5.366264e-01 -4.787800e-02 2.690479e-01 1.914891e-01 2.281998e-01 4.035924e-01 2.906940e-01 2.299869e-01 -5.090309e-01 -7.655790e-01 -9.091358e-01 -8.752456e-01 -1.692663e-02
<VARIANCE> 39
 1.389906e+01 2.534037e+01 1.359429e+01 2.832854e+01 1.755633e+01 9.314502e+00 2.551994e+01 3.426047e+01 7.557196e+01 5.611145e+01 2.819699e+01 9.521361e+01 2.311369e-03 7.414428e-01 8.169392e-01 9.944157e-01 1.136966e+00 9.722912e-01 7.612641e-01 1.579550e+00 1.090244e+00 3.515228e+00 3.567215e+00 4.867685e+00 3.129593e+00 2.607626e-04 9.849755e-02 1.547706e-01 3.387047e-01 3.490626e-01 2.883894e-01 2.728088e-01 4.654703e-01 3.806593e-01 8.607064e-01 7.808974e-01 7.778736e-01 6.652179e-01 2.556697e-04
<GCONST> 8.248840e+01
<MIXTURE> 4 5.599573e-02
<MEAN> 39
 7.387866e-01 1.127597e+01 -3.856355e+00 -4.155724e+00 -6.689059e+00 -6.283638e+00 -3.796533e+00 -2.037873e-01 -4.052258e+00 -3.088020e+00 -4.811963e+00 -3.947107e+00 7.348329e-01 -2.334908e-01 8.899008e-01 3.716524e-02 5.321278e-01 -2.982572e-01 2.754533e-01 -2.694577e-01 -2.472487e-01 -4.216465e-01 -1.447742e-01 -3.626130e-02 5.951515e-01 2.114409e-02 -8.280255e-02 -2.900880e-01 2.913325e-01 1.805147e-01 3.846491e-01 3.729673e-01 1.751830e-01 1.388251e-01 4.265093e-01 3.331357e-01 5.866272e-01 5.358881e-01 -6.036298e-03
<VARIANCE> 39
 1.319225e+01 3.026036e+01 1.677738e+01 2.338064e+01 2.303954e+01 2.591419e+01 5.051720e+01 3.552290e+01 2.937228e+01 3.828605e+01 5.413861e+01 4.560970e+01 1.929232e-02 1.219267e+00 2.115544e+00 8.526630e-01 1.921553e+00 1.406220e+00 2.009177e+00 2.857152e+00 3.078853e+00 2.814011e+00 2.945076e+00 4.830038e+00 6.027725e+00 1.632310e-03 1.607072e-01 3.095287e-01 2.076407e-01 3.522967e-01 3.656325e-01 4.853301e-01 6.015931e-01 4.276221e-01 4.123912e-01 5.801088e-01 5.824569e-01 5.825537e-01 4.797032e-04
<GCONST> 9.327805e+01
<MIXTURE> 5 2.937894e-02
<MEAN> 39
 -9.668789e-01 9.348674e+00 -6.677200e+00 -3.390558e+00 -4.694920e+00 -4.075495e+00 1.014310e+00 -1.580433e+00 2.050088e+00 3.568285e+00 5.930937e+00 9.619908e+00 8.305485e-01 -1.125101e+00 -3.513643e-01 -2.175281e-01 -1.051570e-01 -5.055954e-01 -4.374214e-01 -1.112686e+00 -1.180300e+00 -1.541014e-01 7.485901e-01 2.466051e+00 2.692947e+00 3.366644e-02 1.603042e-01 -3.421582e-02 3.039412e-01 2.587934e-01 1.454051e-01 2.737759e-02 7.210597e-02 3.626046e-01 2.016726e-01 8.060940e-02 -1.197927e-01 -3.936561e-01 -1.293714e-02
<VARIANCE> 39
 1.742644e+01 3.204898e+01 2.816004e+01 1.500756e+01 2.253347e+01 2.239230e+01 2.297018e+01 3.366004e+01 3.951566e+01 5.355096e+01 5.764464e+01 6.618289e+01 9.764208e-03 6.160403e-01 8.084387e-01 9.553682e-01 1.130463e+00 1.519064e+00 1.440144e+00 1.698410e+00 2.934465e+00 4.312217e+00 3.464987e+00 4.264609e+00 6.224642e+00 4.500389e-04 1.506094e-01 2.128414e-01 2.124257e-01 2.084579e-01 3.449072e-01 4.488377e-01 3.473721e-01 4.549417e-01 3.706842e-01 5.059876e-01 3.644441e-01 7.330581e-01 2.743148e-04
<GCONST> 8.678117e+01
<MIXTURE> 6 7.638682e-02
<MEAN> 39
 -2.307225e-01 1.289098e+01 -4.702437e-01 -2.794936e+00 -4.442202e+00 -5.735118e+00 -6.753612e+00 4.086123e-01 -5.870510e-01 -1.623982e+00 2.555374e+00 -1.395322e+00 7.795706e-01 -2.497960e-01 1.360947e+00 -4.070719e-01 9.378494e-01 -6.227310e-01 -3.011249e-03 -1.009168e+00 -2.497040e-01 -6.510699e-01 -5.084335e-01 2.097744e-01 -3.610057e-01 1.098508e-02 7.355139e-02 -4.607216e-01 1.165430e-01 -1.764100e-01 -9.678055e-02 2.448447e-01 1.979541e-01 5.339045e-02 -7.110742e-02 9.385472e-02 -3.237076e-01 -2.624158e-02 1.951598e-03
<VARIANCE> 39
 1.009142e+01 2.963748e+01 2.394596e+01 2.924771e+01 2.227413e+01 2.668925e+01 4.286123e+01 2.649911e+01 3.361539e+01 3.327378e+01 3.622259e+01 3.242329e+01 1.101570e-02 5.574546e-01 1.148719e+00 1.361394e+00 1.957833e+00 1.842393e+00 2.252291e+00 1.982602e+00 2.337943e+00 2.170262e+00 2.827631e+00 2.624935e+00 2.379195e+00 4.251722e-04 8.022117e-02 2.670231e-01 2.180054e-01 3.475571e-01 3.583654e-01 4.329075e-01 3.651974e-01 3.587935e-01 3.803933e-01 4.565460e-01 3.796601e-01 4.066893e-01 8.744143e-05
<GCONST> 8.302405e+01
<MIXTURE> 7 7.638913e-02
<MEAN> 39
 -2.307917e-01 1.289099e+01 -4.701520e-01 -2.795027e+00 -4.442159e+00 -5.735207e+00 -6.753559e+00 4.085681e-01 -5.869240e-01 -1.624039e+00 2.555466e+00 -1.395270e+00 7.795713e-01 -2.498015e-01 1.360975e+00 -4.071030e-01 9.378898e-01 -6.227394e-01 -3.008630e-03 -1.009183e+00 -2.497285e-01 -6.510759e-01 -5.084813e-01 2.097966e-01 -3.610313e-01 1.098503e-02 7.355991e-02 -4.607396e-01 1.165455e-01 -1.764010e-01 -9.679282e-02 2.448690e-01 1.979567e-01 5.339909e-02 -7.111926e-02 9.386674e-02 -3.237191e-01 -2.624701e-02 1.951510e-03
<VARIANCE> 39
 1.009136e+01 2.963748e+01 2.394583e+01 2.924743e+01 2.227402e+01 2.668946e+01 4.286066e+01 2.649903e+01 3.361526e+01 3.327404e+01 3.622214e+01 3.242293e+01 1.101557e-02 5.574559e-01 1.148732e+00 1.361391e+00 1.957866e+00 1.842414e+00 2.252300e+00 1.982604e+00 2.337952e+00 2.170277e+00 2.827674e+00 2.624968e+00 2.379216e+00 4.251732e-04 8.022229e-02 2.670277e-01 2.180042e-01 3.475559e-01 3.583716e-01 4.329101e-01 3.651982e-01 3.587939e-01 3.803945e-01 4.565473e-01 3.796636e-01 4.066905e-01 8.744394e-05
<GCONST> 8.302414e+01
<MIXTURE> 8 3.465953e-02
<MEAN> 39
 4.713866e-01 1.253306e+01 -3.154966e+00 -2.109835e+00 -5.713425e+00 -4.372686e+00 8.993317e-01 1.149439e+00 -7.142162e-01 1.367560e+00 -2.161981e+00 4.924646e+00 7.985973e-01 -1.035313e+00 -3.633240e-01 -8.730713e-01 -2.955711e-01 -6.800832e-01 -1.018195e+00 -1.369547e+00 -1.454916e+00 -1.713231e+00 -1.766189e+00 -1.559533e+00 -5.058476e-01 4.907402e-02 -1.233798e-01 -6.129529e-01 2.899806e-01 3.139052e-01 3.985820e-01 2.500080e-01 -2.587077e-02 8.810097e-02 2.453441e-01 1.209347e-01 1.809213e-01 -1.981101e-01 -2.098254e-02
<VARIANCE> 39
 1.467568e+01 3.896832e+01 1.763750e+01 1.515784e+01 1.565924e+01 2.046255e+01 1.525785e+01 2.690316e+01 2.140752e+01 2.507888e+01 2.220633e+01 2.446935e+01 7.338150e-03 7.256576e-01 6.624253e-01 8.444551e-01 1.209235e+00 1.083332e+00 1.454714e+00 1.420142e+00 1.443962e+00 1.542879e+00 1.642879e+00 2.623216e+00 3.078803e+00 4.863062e-04 1.533406e-01 2.892058e-01 2.572206e-01 2.176792e-01 2.626573e-01 4.007879e-01 2.477780e-01 3.607280e-01 3.251829e-01 3.680736e-01 3.652026e-01 3.493063e-01 4.146287e-04
<GCONST> 7.628794e+01
<MIXTURE> 9 2.938167e-02
<MEAN> 39
 -9.672278e-01 9.349723e+00 -6.676622e+00 -3.390730e+00 -4.695536e+00 -4.076249e+00 1.013985e+00 -1.581673e+00 2.049290e+00 3.566915e+00 5.928855e+00 9.620132e+00 8.305470e-01 -1.125281e+00 -3.514361e-01 -2.174696e-01 -1.050483e-01 -5.055367e-01 -4.372603e-01 -1.112849e+00 -1.180700e+00 -1.544717e-01 7.486326e-01 2.466597e+00 2.693609e+00 3.367209e-02 1.603605e-01 -3.426259e-02 3.040546e-01 2.588910e-01 1.456110e-01 2.759541e-02 7.221476e-02 3.627683e-01 2.017049e-01 8.066544e-02 -1.197471e-01 -3.938456e-01 -1.294368e-02
<VARIANCE> 39
 1.742698e+01 3.204736e+01 2.816311e+01 1.500549e+01 2.253535e+01 2.239450e+01 2.296988e+01 3.364425e+01 3.951235e+01 5.354644e+01 5.762300e+01 6.618499e+01 9.764204e-03 6.160573e-01 8.083150e-01 9.554753e-01 1.130358e+00 1.519232e+00 1.439939e+00 1.697974e+00 2.933593e+00 4.311681e+00 3.465822e+00 4.264562e+00 6.223053e+00 4.500620e-04 1.506300e-01 2.128618e-01 2.125066e-01 2.084236e-01 3.450171e-01 4.489066e-01 3.473838e-01 4.547743e-01 3.706658e-01 5.061275e-01 3.644758e-01 7.330642e-01 2.744220e-04
<GCONST> 8.678081e+01
<MIXTURE> 10 7.638913e-02
<MEAN> 39
 -2.307917e-01 1.289099e+01 -4.701520e-01 -2.795027e+00 -4.442159e+00 -5.735207e+00 -6.753559e+00 4.085681e-01 -5.869240e-01 -1.624039e+00 2.555466e+00 -1.395270e+00 7.795713e-01 -2.498015e-01 1.360975e+00 -4.071030e-01 9.378898e-01 -6.227394e-01 -3.008630e-03 -1.009183e+00 -2.497285e-01 -6.510759e-01 -5.084813e-01 2.097966e-01 -3.610313e-01 1.098503e-02 7.355991e-02 -4.607396e-01 1.165455e-01 -1.764010e-01 -9.679282e-02 2.448690e-01 1.979567e-01 5.339909e-02 -7.111926e-02 9.386674e-02 -3.237191e-01 -2.624701e-02 1.951510e-03
<VARIANCE> 39
 1.009136e+01 2.963748e+01 2.394583e+01 2.924743e+01 2.227402e+01 2.668946e+01 4.286066e+01 2.649903e+01 3.361526e+01 3.327404e+01 3.622214e+01 3.242293e+01 1.101557e-02 5.574559e-01 1.148732e+00 1.361391e+00 1.957866e+00 1.842414e+00 2.252300e+00 1.982604e+00 2.337952e+00 2.170277e+00 2.827674e+00 2.624968e+00 2.379216e+00 4.251732e-04 8.022229e-02 2.670277e-01 2.180042e-01 3.475559e-01 3.583716e-01 4.329101e-01 3.651982e-01 3.587939e-01 3.803945e-01 4.565473e-01 3.796636e-01 4.066905e-01 8.744394e-05
<GCONST> 8.302414e+01
<MIXTURE> 11 7.638913e-02
<MEAN> 39
 -2.307917e-01 1.289099e+01 -4.701520e-01 -2.795027e+00 -4.442159e+00 -5.735207e+00 -6.753559e+00 4.085681e-01 -5.869240e-01 -1.624039e+00 2.555466e+00 -1.395270e+00 7.795713e-01 -2.498015e-01 1.360975e+00 -4.071030e-01 9.378898e-01 -6.227394e-01 -3.008630e-03 -1.009183e+00 -2.497285e-01 -6.510759e-01 -5.084813e-01 2.097966e-01 -3.610313e-01 1.098503e-02 7.355991e-02 -4.607396e-01 1.165455e-01 -1.764010e-01 -9.679282e-02 2.448690e-01 1.979567e-01 5.339909e-02 -7.111926e-02 9.386674e-02 -3.237191e-01 -2.624701e-02 1.951510e-03
<VARIANCE> 39
 1.009136e+01 2.963748e+01 2.394583e+01 2.924743e+01 2.227402e+01 2.668946e+01 4.286066e+01 2.649903e+01 3.361526e+01 3.327404e+01 3.622214e+01 3.242293e+01 1.101557e-02 5.574559e-01 1.148732e+00 1.361391e+00 1.957866e+00 1.842414e+00 2.252300e+00 1.982604e+00 2.337952e+00 2.170277e+00 2.827674e+00 2.624968e+00 2.379216e+00 4.251732e-04 8.022229e-02 2.670277e-01 2.180042e-01 3.475559e-01 3.583716e-01 4.329101e-01 3.651982e-01 3.587939e-01 3.803945e-01 4.565473e-01 3.796636e-01 4.066905e-01 8.744394e-05
<GCONST> 8.302414e+01
<MIXTURE> 12 3.466895e-02
<MEAN> 39
 4.686682e-01 1.253083e+01 -3.156754e+00 -2.111327e+00 -5.714206e+00 -4.373920e+00 8.975424e-01 1.147380e+00 -7.147550e-01 1.365657e+00 -2.160715e+00 4.923526e+00 7.986293e-01 -1.035506e+00 -3.630215e-01 -8.729351e-01 -2.951702e-01 -6.798224e-01 -1.018153e+00 -1.369417e+00 -1.455253e+00 -1.713258e+00 -1.765932e+00 -1.559314e+00 -5.052903e-01 4.908087e-02 -1.232334e-01 -6.130961e-01 2.905895e-01 3.144075e-01 3.990878e-01 2.508080e-01 -2.555793e-02 8.861499e-02 2.457032e-01 1.212998e-01 1.811841e-01 -1.980682e-01 -2.100578e-02
<VARIANCE> 39
 1.467974e+01 3.898868e+01 1.764135e+01 1.515609e+01 1.566749e+01 2.047226e+01 1.525935e+01 2.690009e+01 2.141304e+01 2.508141e+01 2.221340e+01 2.447744e+01 7.339543e-03 7.259218e-01 6.623700e-01 8.448135e-01 1.209970e+00 1.083469e+00 1.454555e+00 1.420067e+00 1.444417e+00 1.542744e+00 1.642784e+00 2.623922e+00 3.080225e+00 4.865056e-04 1.534771e-01 2.893032e-01 2.574314e-01 2.177959e-01 2.627615e-01 4.011937e-01 2.478765e-01 3.608051e-01 3.252602e-01 3.681242e-01 3.651730e-01 3.494140e-01 4.149092e-04
<GCONST> 7.629947e+01
<MIXTURE> 13 7.638978e-02
<MEAN> 39
 -2.308872e-01 1.289095e+01 -4.701804e-01 -2.795046e+00 -4.442015e+00 -5.735397e+00 -6.753271e+00 4.084494e-01 -5.867757e-01 -1.623988e+00 2.555420e+00 -1.395109e+00 7.795715e-01 -2.497656e-01 1.360988e+00 -4.071182e-01 9.379818e-01 -6.228019e-01 -2.999830e-03 -1.009188e+00 -2.497775e-01 -6.510996e-01 -5.085161e-01 2.097867e-01 -3.610343e-01 1.098352e-02 7.357096e-02 -4.607435e-01 1.165516e-01 -1.764225e-01 -9.681609e-02 2.448910e-01 1.979362e-01 5.342325e-02 -7.113430e-02 9.386460e-02 -3.237266e-01 -2.626645e-02 1.952211e-03
<VARIANCE> 39
 1.009147e+01 2.963621e+01 2.394586e+01 2.924747e+01 2.227362e+01 2.668958e+01 4.286140e+01 2.649928e+01 3.361607e+01 3.327575e+01 3.622287e+01 3.242393e+01 1.101556e-02 5.574425e-01 1.148698e+00 1.361349e+00 1.957862e+00 1.842390e+00 2.252354e+00 1.982622e+00 2.337921e+00 2.170329e+00 2.827746e+00 2.625079e+00 2.379346e+00 4.251390e-04 8.022153e-02 2.670197e-01 2.179981e-01 3.475508e-01 3.583666e-01 4.329257e-01 3.651969e-01 3.587994e-01 3.804075e-01 4.565660e-01 3.796729e-01 4.067009e-01 8.742266e-05
<GCONST> 8.302409e+01
<MIXTURE> 14 3.466895e-02
<MEAN> 39
 4.686682e-01 1.253083e+01 -3.156754e+00 -2.111327e+00 -5.714206e+00 -4.373920e+00 8.975424e-01 1.147380e+00 -7.147550e-01 1.365657e+00 -2.160715e+00 4.923526e+00 7.986293e-01 -1.035506e+00 -3.630215e-01 -8.729351e-01 -2.951702e-01 -6.798224e-01 -1.018153e+00 -1.369417e+00 -1.455253e+00 -1.713258e+00 -1.765932e+00 -1.559314e+00 -5.052903e-01 4.908087e-02 -1.232334e-01 -6.130961e-01 2.905895e-01 3.144075e-01 3.990878e-01 2.508080e-01 -2.555793e-02 8.861499e-02 2.457032e-01 1.212998e-01 1.811841e-01 -1.980682e-01 -2.100578e-02
<VARIANCE> 39
 1.467974e+01 3.898868e+01 1.764135e+01 1.515609e+01 1.566749e+01 2.047226e+01 1.525935e+01 2.690009e+01 2.141304e+01 2.508141e+01 2.221340e+01 2.447744e+01 7.339543e-03 7.259218e-01 6.623700e-01 8.448135e-01 1.209970e+00 1.083469e+00 1.454555e+00 1.420067e+00 1.444417e+00 1.542744e+00 1.642784e+00 2.623922e+00 3.080225e+00 4.865056e-04 1.534771e-01 2.893032e-01 2.574314e-01 2.177959e-01 2.627615e-01 4.011937e-01 2.478765e-01 3.608051e-01 3.252602e-01 3.681242e-01 3.651730e-01 3.494140e-01 4.149092e-04
<GCONST> 7.629947e+01
<MIXTURE> 15 3.466537e-02
<MEAN> 39
 4.695288e-01 1.253150e+01 -3.156158e+00 -2.110834e+00 -5.713893e+00 -4.373486e+00 8.981408e-01 1.148059e+00 -7.145555e-01 1.366337e+00 -2.161085e+00 4.923895e+00 7.986191e-01 -1.035437e+00 -3.631062e-01 -8.729843e-01 -2.953022e-01 -6.799161e-01 -1.018166e+00 -1.369462e+00 -1.455148e+00 -1.713265e+00 -1.766008e+00 -1.559374e+00 -5.054591e-01 4.907890e-02 -1.232797e-01 -6.130554e-01 2.903944e-01 3.142423e-01 3.989179e-01 2.505491e-01 -2.566080e-02 8.844668e-02 2.455834e-01 1.211749e-01 1.810967e-01 -1.980878e-01 -2.099830e-02
<VARIANCE> 39
 1.467845e+01 3.898206e+01 1.764007e+01 1.515673e+01 1.566478e+01 2.046931e+01 1.525890e+01 2.690144e+01 2.141134e+01 2.508065e+01 2.221102e+01 2.447460e+01 7.339105e-03 7.258567e-01 6.624068e-01 8.447170e-01 1.209763e+00 1.083441e+00 1.454634e+00 1.420107e+00 1.444275e+00 1.542814e+00 1.642804e+00 2.623633e+00 3.079720e+00 4.864594e-04 1.534371e-01 2.892730e-01 2.573636e-01 2.177607e-01 2.627279e-01 4.010609e-01 2.478448e-01 3.607835e-01 3.252361e-01 3.681105e-01 3.651814e-01 3.493800e-01 4.148222e-04
<GCONST> 7.629598e+01
<MIXTURE> 16 3.563240e-02
<MEAN> 39
 -2.649529e+00 7.779424e+00 -2.525468e+00 -1.219235e+01 -2.803573e+00 -1.156167e+01 -9.357011e-01 2.137646e+00 -2.846920e+00 -4.311931e+00 -2.446589e+00 -6.860211e+00 8.367515e-01 -6.239639e-01 2.092424e+00 -1.905468e+00 1.401793e+00 -1.154762e+00 -2.199052e+00 2.462583e-01 -1.163466e+00 -1.730319e+00 -6.897929e-02 -5.760064e-01 3.520418e-01 -1.437248e-02 3.650095e-01 -3.703058e-01 4.030802e-01 6.305063e-01 -4.486178e-01 1.221939e+00 -9.775823e-02 -3.942379e-01 1.379769e-01 2.873281e-01 -1.140084e-01 6.502603e-01 -2.394069e-04
<VARIANCE> 39
 1.119798e+01 1.677665e+01 1.772763e+01 1.314288e+01 2.014718e+01 3.782910e+01 3.102239e+01 4.487005e+01 2.961500e+01 4.493201e+01 3.374337e+01 1.981088e+01 5.775360e-03 5.785494e-01 1.217700e+00 7.488238e-01 2.114050e+00 1.904845e+00 4.559844e+00 2.629115e+00 2.626124e+00 5.457994e+00 6.107717e+00 3.960657e+00 4.201266e+00 2.280576e-04 9.292854e-02 3.020215e-01 2.768557e-01 5.853064e-01 4.545644e-01 9.858223e-01 2.866540e-01 6.368017e-01 7.997214e-01 7.180514e-01 4.888171e-01 5.530848e-01 1.647602e-05
<GCONST> 8.614544e+01
<MIXTURE> 17 8.333958e-03
<MEAN> 39
 -5.252174e+00 1.029240e+01 -5.325630e+00 -3.374974e+00 -7.191100e+00 -4.636204e+00 3.147981e+00 4.406785e+00 1.423836e+01 1.438386e+01 1.089115e+01 6.689844e+00 9.005485e-01 -6.620236e-01 -1.264375e-01 -1.844487e-01 -3.338292e-01 -5.673073e-01 2.628266e-02 -1.243603e-01 5.177485e-02 1.769340e+00 2.492510e+00 1.174661e+00 8.173914e-01 2.677468e-02 5.357828e-01 -4.760651e-02 2.675314e-01 1.910502e-01 2.275942e-01 4.029819e-01 2.903259e-01 2.274631e-01 -5.127056e-01 -7.672563e-01 -9.068806e-01 -8.716105e-01 -1.685215e-02
<VARIANCE> 39
 1.391468e+01 2.539044e+01 1.359372e+01 2.828595e+01 1.756312e+01 9.317678e+00 2.545165e+01 3.431283e+01 7.552605e+01 5.594462e+01 2.816249e+01 9.540625e+01 2.317623e-03 7.400334e-01 8.192525e-01 9.961809e-01 1.140517e+00 9.741610e-01 7.602285e-01 1.579395e+00 1.089003e+00 3.521115e+00 3.572075e+00 4.865605e+00 3.127006e+00 2.604926e-04 9.837939e-02 1.548718e-01 3.380366e-01 3.484419e-01 2.886320e-01 2.725310e-01 4.643568e-01 3.814937e-01 8.607553e-01 7.788576e-01 7.786211e-01 6.670283e-01 2.545783e-04
<GCONST> 8.248749e+01
<MIXTURE> 18 5.599354e-02
<MEAN> 39
 7.388505e-01 1.127591e+01 -3.856302e+00 -4.155659e+00 -6.689017e+00 -6.283532e+00 -3.796479e+00 -2.038429e-01 -4.052227e+00 -3.088061e+00 -4.811984e+00 -3.947055e+00 7.348275e-01 -2.334817e-01 8.899074e-01 3.717678e-02 5.321187e-01 -2.982597e-01 2.754625e-01 -2.694520e-01 -2.472365e-01 -4.216208e-01 -1.447615e-01 -3.624050e-02 5.951387e-01 2.114380e-02 -8.280767e-02 -2.900735e-01 2.913215e-01 1.804990e-01 3.846342e-01 3.729479e-01 1.751685e-01 1.388214e-01 4.265045e-01 3.331361e-01 5.866317e-01 5.358863e-01 -6.035460e-03
<VARIANCE> 39
 1.319229e+01 3.026025e+01 1.677741e+01 2.338054e+01 2.303955e+01 2.591368e+01 5.051581e+01 3.552298e+01 2.937245e+01 3.828677e+01 5.413910e+01 4.560987e+01 1.929319e-02 1.219288e+00 2.115612e+00 8.526735e-01 1.921498e+00 1.406204e+00 2.009161e+00 2.857194e+00 3.078858e+00 2.814029e+00 2.945043e+00 4.830001e+00 6.027725e+00 1.632318e-03 1.607059e-01 3.095224e-01 2.076390e-01 3.522905e-01 3.656209e-01 4.853231e-01 6.015887e-01 4.276183e-01 4.123977e-01 5.801125e-01 5.824542e-01 5.825584e-01 4.796911e-04
<GCONST> 9.327800e+01
<MIXTURE> 19 5.599507e-02
<MEAN> 39
 7.385693e-01 1.127602e+01 -3.856473e+00 -4.155886e+00 -6.689146e+00 -6.283871e+00 -3.796652e+00 -2.039013e-01 -4.052409e+00 -3.088129e+00 -4.812096e+00 -3.947296e+00 7.348478e-01 -2.335199e-01 8.898569e-01 3.713648e-02 5.321503e-01 -2.982563e-01 2.754516e-01 -2.694773e-01 -2.472950e-01 -4.217279e-01 -1.448333e-01 -3.629526e-02 5.952098e-01 2.114487e-02 -8.278162e-02 -2.900965e-01 2.913517e-01 1.805525e-01 3.846864e-01 3.730012e-01 1.752171e-01 1.388560e-01 4.265283e-01 3.331524e-01 5.866259e-01 5.358967e-01 -6.037857e-03
<VARIANCE> 39
 1.319211e+01 3.026054e+01 1.677744e+01 2.338069e+01 2.303903e+01 2.591561e+01 5.051830e+01 3.552168e+01 2.937163e+01 3.828394e+01 5.413657e+01 4.560955e+01 1.928952e-02 1.219190e+00 2.115240e+00 8.526344e-01 1.921589e+00 1.406254e+00 2.009177e+00 2.856986e+00 3.078780e+00 2.813923e+00 2.945046e+00 4.830014e+00 6.027586e+00 1.632143e-03 1.607076e-01 3.095194e-01 2.076439e-01 3.523054e-01 3.656510e-01 4.853461e-01 6.015851e-01 4.276048e-01 4.123664e-01 5.800944e-01 5.824385e-01 5.825404e-01 4.797102e-04
<GCONST> 9.327726e+01
<MIXTURE> 20 1.890495e-01
<MEAN> 39
 3.210051e+00 1.359606e+01 -1.937838e+00 -5.700884e-01 -3.492771e+00 -3.111620e+00 2.243829e+00 3.216411e+00 1.315702e+00 4.099225e+00 -8.936504e-01 4.756218e+00 6.793920e-01 -1.636331e-02 7.299532e-01 -3.032160e-01 -9.107251e-02 -7.637758e-01 -3.862316e-01 -6.384001e-01 -4.492940e-01 -5.441383e-01 -5.716020e-01 -8.305362e-01 7.962043e-02 3.042245e-02 -3.001432e-01 -4.020267e-01 -1.964849e-01 -2.298083e-01 -9.765367e-02 -2.666513e-01 -3.615778e-01 -3.730727e-01 -3.514161e-01 -5.241197e-01 -1.767570e-01 -3.342775e-01 6.833014e-03
<VARIANCE> 39
 8.838018e+00 2.299253e+01 1.847766e+01 1.758891e+01 1.421117e+01 1.463304e+01 2.626049e+01 2.582484e+01 2.657535e+01 2.873621e+01 2.834498e+01 3.630291e+01 1.142188e-02 6.514516e-01 1.251567e+00 7.820476e-01 9.291209e-01 9.838849e-01 1.117591e+00 1.675433e+00 1.598083e+00 1.624535e+00 1.869905e+00 2.144803e+00 1.680966e+00 1.055174e-03 9.012075e-02 2.235997e-01 1.336333e-01 2.089202e-01 2.547655e-01 2.568854e-01 2.869966e-01 2.793179e-01 2.994204e-01 2.717752e-01 4.758093e-01 4.906613e-01 1.379943e-04
<GCONST> 7.424512e+01
<STATE> 3
<NUMMIXES> 20
<MIXTURE> 1 2.438641e-03
<MEAN> 39
 -7.150726e+00 1.363797e+01 -7.568994e+00 -5.289567e-01 -1.281004e+01 -6.720811e+00 -3.096800e+00 -9.303574e-01 7.607847e+00 3.104529e+00 7.672755e+00 1.452313e+01 8.465140e-01 7.973663e-01 1.531704e+00 1.666064e+00 1.652957e+00 1.407454e+00 2.141844e+00 1.122900e+00 1.470725e+00 1.373544e+00 6.255766e-01 1.368440e+00 5.612732e-01 1.331372e-02 4.239831e-01 4.613721e-01 6.410272e-01 3.576841e-01 8.560590e-01 3.985789e-01 5.149326e-01 3.713055e-01 -5.784995e-02 8.611828e-02 -4.906132e-02 -5.595146e-01 -2.600501e-03
<VARIANCE> 39
 2.171022e+01 1.898903e+01 5.296940e-01 8.792721e+00 1.679544e+00 1.627358e+01 3.204160e+01 2.858031e+01 4.433972e+01 8.755914e+01 3.902024e+01 8.645412e+01 7.878582e-03 2.131718e-02 3.601356e-01 7.830356e-01 1.692894e-01 1.224159e-01 1.569372e+00 3.342690e+00 4.181972e-01 1.575408e+00 1.442242e+00 2.025499e-01 4.790771e+00 4.489209e-05 7.542050e-02 4.323657e-02 4.235939e-02 8.750334e-02 1.598115e-02 8.857664e-02 1.976704e-01 1.099157e-01 1.635062e-01 1.134387e-01 3.139478e-01 7.164524e-01 1.395478e-05
<GCONST> 4.511199e+01
<MIXTURE> 2 1.407199e-02
<MEAN> 39
 -3.618872e+00 8.395358e+00 -9.098052e+00 -4.945998e+00 -9.174917e+00 -7.724783e+00 -1.317231e+00 -2.623946e+00 4.129677e+00 6.701997e+00 1.064469e+01 1.594421e+01 9.053596e-01 -1.787662e-01 -6.943824e-02 8.901242e-02 3.762417e-01 -1.052063e-01 -3.026811e-01 -7.213998e-01 -1.766006e-01 1.010626e-01 3.778895e-01 1.337292e+00 1.258038e+00 1.638476e-02 3.927863e-01 2.665862e-01 3.038923e-01 2.666432e-01 3.527376e-01 2.763437e-01 3.693907e-01 3.993798e-01 8.222775e-02 -1.852880e-01 -4.933262e-01 -7.331385e-01 -7.666164e-03
<VARIANCE> 39
 1.917564e+01 3.237444e+01 1.857988e+01 1.372144e+01 2.635172e+01 1.852451e+01 2.249132e+01 3.120387e+01 5.350994e+01 5.879366e+01 5.066115e+01 6.031866e+01 4.736544e-03 4.919823e-01 5.509845e-01 8.002927e-01 9.481242e-01 1.357844e+00 9.564641e-01 1.268413e+00 1.044387e+00 9.501086e-01 1.810612e+00 2.668337e+00 3.195985e+00 1.234134e-04 6.814870e-02 9.337639e-02 1.374780e-01 1.538534e-01 2.652778e-01 1.445557e-01 2.247177e-01 1.933837e-01 3.124704e-01 4.205211e-01 3.357797e-01 3.543429e-01 3.763542e-05
<GCONST> 7.011070e+01
<MIXTURE> 3 1.407173e-02
<MEAN> 39
 -3.622074e+00 8.390050e+00 -9.099781e+00 -4.951207e+00 -9.177728e+00 -7.727865e+00 -1.316443e+00 -2.617876e+00 4.139414e+00 6.716105e+00 1.065385e+01 1.594164e+01 9.054101e-01 -1.780022e-01 -6.907970e-02 8.892197e-02 3.757343e-01 -1.057895e-01 -3.029131e-01 -7.206125e-01 -1.759851e-01 1.014282e-01 3.769623e-01 1.334496e+00 1.254886e+00 1.636483e-02 3.929150e-01 2.669268e-01 3.041292e-01 2.671263e-01 3.532314e-01 2.766835e-01 3.694304e-01 3.988037e-01 8.162729e-02 -1.860094e-01 -4.937352e-01 -7.327935e-01 -7.653886e-03
<VARIANCE> 39
 1.918464e+01 3.236056e+01 1.858944e+01 1.372657e+01 2.635856e+01 1.850839e+01 2.250080e+01 3.127108e+01 5.361892e+01 5.885252e+01 5.070374e+01 6.044730e+01 4.735888e-03 4.921493e-01 5.513031e-01 7.999646e-01 9.484674e-01 1.356659e+00 9.559872e-01 1.269180e+00 1.043340e+00 9.496948e-01 1.809269e+00 2.670757e+00 3.191260e+00 1.233919e-04 6.814184e-02 9.345509e-02 1.375530e-01 1.540996e-01 2.654758e-01 1.445391e-01 2.246818e-01 1.935014e-01 3.128842e-01 4.205167e-01 3.358074e-01 3.543483e-01 3.751724e-05
<GCONST> 7.011884e+01
<MIXTURE> 4 5.495033e-02
<MEAN> 39
 -2.560644e-01 1.072581e+01 -3.134217e+00 -1.445641e+00 -4.856719e+00 -4.306159e+00 -2.300349e+00 -1.655626e+00 -4.162685e+00 -2.170296e+00 -3.283299e+00 2.614420e+00 8.559847e-01 9.275216e-02 4.852987e-01 2.023154e-01 6.683849e-01 2.111474e-01 1.329154e-01 3.817632e-02 -1.199642e-01 -1.741216e-02 -9.952651e-02 -2.248869e-02 7.646191e-01 1.534148e-02 9.089819e-02 -4.643323e-02 1.829314e-02 -9.525051e-02 8.158413e-02 -5.858910e-02 6.442801e-02 2.098479e-01 3.647005e-01 2.395288e-01 1.782376e-01 -1.511796e-01 -3.278865e-03
<VARIANCE> 39
 1.113713e+01 2.950402e+01 1.703508e+01 1.692718e+01 2.741409e+01 3.581096e+01 2.728359e+01 3.108296e+01 1.812157e+01 2.278129e+01 3.726200e+01 3.084788e+01 7.740974e-03 2.925687e-01 7.042375e-01 9.424682e-01 9.131225e-01 1.178612e+00 1.207603e+00 1.398819e+00 1.568326e+00 1.784838e+00 1.839615e+00 1.987572e+00 1.602827e+00 1.365438e-04 6.741530e-02 8.478352e-02 1.241615e-01 1.675000e-01 2.547022e-01 2.544031e-01 2.235904e-01 3.442795e-01 3.028742e-01 2.331183e-01 3.286000e-01 2.919658e-01 3.396880e-05
<GCONST> 6.821185e+01
<MIXTURE> 5 6.801421e-02
<MEAN> 39
 -2.594285e+00 1.087923e+01 -6.471138e+00 -3.530503e+00 -9.450027e+00 -9.752209e+00 -5.975445e+00 -5.309194e+00 -6.458272e+00 -4.650470e+00 -7.875489e+00 5.177839e-01 8.680724e-01 -1.602735e-01 -1.942310e-01 -1.760774e-01 1.707620e-01 -1.710532e-01 -1.086438e-01 -5.637004e-01 -6.817899e-01 -3.837715e-01 -4.532087e-01 -4.111268e-01 -1.736374e-01 1.478371e-02 3.261880e-01 2.522692e-01 4.371021e-01 3.312937e-01 5.182449e-01 5.568693e-01 6.004985e-01 6.289161e-01 6.236123e-01 5.971342e-01 5.966324e-01 3.516349e-01 -4.693015e-03
<VARIANCE> 39
 1.232219e+01 3.053502e+01 1.489918e+01 1.471254e+01 1.437149e+01 1.847222e+01 2.117249e+01 2.390040e+01 2.460539e+01 2.116442e+01 2.438572e+01 3.134221e+01 7.788736e-03 3.324006e-01 3.466383e-01 5.123665e-01 8.623242e-01 8.338261e-01 7.890258e-01 1.133746e+00 9.981599e-01 8.981091e-01 1.091256e+00 1.366944e+00 1.353075e+00 1.505502e-04 5.763166e-02 7.653895e-02 8.215307e-02 1.334569e-01 1.154512e-01 1.614959e-01 1.784426e-01 1.775133e-01 1.681367e-01 2.155184e-01 2.771254e-01 2.507727e-01 3.551311e-05
<GCONST> 5.776472e+01
<MIXTURE> 6 8.822072e-02
<MEAN> 39
 -1.488157e+00 1.571420e+01 9.784223e-01 -1.842334e+00 -6.249163e+00 -4.464937e+00 -1.000700e+01 7.161307e-01 -1.603733e+00 -3.559690e+00 3.745575e+00 -3.115730e+00 8.332592e-01 -1.923490e-01 5.023359e-01 -1.014752e-01 2.217748e-01 -1.409322e-01 8.556406e-02 -1.785424e-01 -7.103623e-03 -1.133991e-01 -2.305958e-01 6.350026e-02 -2.351538e-01 1.199679e-02 8.094522e-02 -2.088171e-01 -7.224430e-03 -1.460617e-01 7.988703e-02 -6.940678e-03 1.070813e-01 -4.462333e-02 6.570250e-02 7.716355e-02 -8.891217e-02 9.059107e-02 -1.983767e-03
<VARIANCE> 39
 8.826946e+00 2.688318e+01 1.500235e+01 1.579312e+01 2.088280e+01 2.380272e+01 2.656564e+01 2.731267e+01 3.109034e+01 4.098489e+01 2.580350e+01 1.871438e+01 5.450855e-03 3.131416e-01 4.525923e-01 4.635892e-01 6.768866e-01 6.335352e-01 7.968813e-01 9.761127e-01 9.709386e-01 1.192178e+00 9.223378e-01 9.365113e-01 9.347048e-01 1.633160e-04 5.733603e-02 7.387269e-02 9.915445e-02 1.332752e-01 1.297839e-01 1.570870e-01 1.716501e-01 2.019638e-01 2.141933e-01 1.901796e-01 1.442154e-01 1.557606e-01 1.807983e-05
<GCONST> 5.595715e+01
<MIXTURE> 7 8.821807e-02
<MEAN> 39
 -1.488212e+00 1.571430e+01 9.785355e-01 -1.842259e+00 -6.249290e+00 -4.464863e+00 -1.000709e+01 7.161016e-01 -1.603649e+00 -3.559817e+00 3.745549e+00 -3.115762e+00 8.332582e-01 -1.923479e-01 5.023447e-01 -1.014752e-01 2.217623e-01 -1.409353e-01 8.557080e-02 -1.785381e-01 -7.094746e-03 -1.133861e-01 -2.305934e-01 6.351551e-02 -2.351498e-01 1.199677e-02 8.094871e-02 -2.088207e-01 -7.227984e-03 -1.460656e-01 7.989011e-02 -6.942935e-03 1.070829e-01 -4.462786e-02 6.570104e-02 7.716861e-02 -8.891168e-02 9.058816e-02 -1.983745e-03
<VARIANCE> 39
 8.827196e+00 2.688308e+01 1.500309e+01 1.579315e+01 2.088295e+01 2.380354e+01 2.656614e+01 2.731320e+01 3.109085e+01 4.098636e+01 2.580338e+01 1.871471e+01 5.450810e-03 3.131551e-01 4.526056e-01 4.636061e-01 6.769104e-01 6.335480e-01 7.968995e-01 9.761519e-01 9.709675e-01 1.192202e+00 9.223821e-01 9.365237e-01 9.347196e-01 1.633176e-04 5.733920e-02 7.387420e-02 9.915746e-02 1.332789e-01 1.297874e-01 1.570939e-01 1.716557e-01 2.019691e-01 2.141978e-01 1.901862e-01 1.442171e-01 1.557627e-01 1.807965e-05
<GCONST> 5.595807e+01
<MIXTURE> 8 3.185599e-02
<MEAN> 39
 -4.801690e-01 1.262319e+01 -4.146440e+00 -8.134349e-01 -6.401205e+00 -6.504312e+00 -2.124605e+00 -1.493962e+00 -2.664742e+00 -8.379249e-01 -5.930933e+00 3.768863e+00 8.514792e-01 -6.512878e-01 -6.047135e-01 -7.002926e-01 -2.527787e-01 -8.366917e-01 -1.060023e+00 -1.487173e+00 -1.478843e+00 -1.105999e+00 -9.867549e-01 -9.402613e-01 -6.554350e-01 2.305150e-02 1.790822e-01 -1.540039e-02 9.684556e-02 3.878423e-03 1.119919e-01 1.411795e-01 1.805720e-01 1.446786e-01 1.609664e-01 1.289253e-01 2.773581e-01 6.409421e-02 -5.954548e-03
<VARIANCE> 39
 1.435861e+01 3.067036e+01 1.387710e+01 1.502983e+01 1.354581e+01 1.387203e+01 1.577309e+01 2.510609e+01 1.966138e+01 2.601388e+01 1.611870e+01 2.343075e+01 5.931599e-03 3.870474e-01 4.526915e-01 6.552806e-01 6.584312e-01 8.135620e-01 8.790715e-01 7.234570e-01 1.200248e+00 1.035558e+00 1.244983e+00 1.457701e+00 1.747108e+00 1.837882e-04 6.780763e-02 7.292827e-02 9.145454e-02 1.227195e-01 1.412900e-01 1.438364e-01 2.185578e-01 1.833072e-01 2.210019e-01 1.687291e-01 1.998734e-01 2.465062e-01 2.654780e-05
<GCONST> 5.714629e+01
<MIXTURE> 9 6.801261e-02
<MEAN> 39
 -2.594302e+00 1.087929e+01 -6.471116e+00 -3.530584e+00 -9.450041e+00 -9.752143e+00 -5.975301e+00 -5.309110e+00 -6.458297e+00 -4.650534e+00 -7.875470e+00 5.176692e-01 8.680679e-01 -1.602814e-01 -1.942229e-01 -1.760650e-01 1.707948e-01 -1.710507e-01 -1.086127e-01 -5.636902e-01 -6.817936e-01 -3.837749e-01 -4.532069e-01 -4.111580e-01 -1.736394e-01 1.478385e-02 3.261915e-01 2.522635e-01 4.371073e-01 3.312952e-01 5.182516e-01 5.568662e-01 6.004854e-01 6.289157e-01 6.236266e-01 5.971496e-01 5.966440e-01 3.516416e-01 -4.692910e-03
<VARIANCE> 39
 1.232219e+01 3.053547e+01 1.489918e+01 1.471279e+01 1.437162e+01 1.847200e+01 2.117295e+01 2.390026e+01 2.460595e+01 2.116483e+01 2.438552e+01 3.134247e+01 7.789126e-03 3.324182e-01 3.466526e-01 5.123852e-01 8.623708e-01 8.338537e-01 7.890483e-01 1.133798e+00 9.981856e-01 8.981603e-01 1.091285e+00 1.367027e+00 1.353124e+00 1.505580e-04 5.763474e-02 7.654338e-02 8.215975e-02 1.334660e-01 1.154555e-01 1.615074e-01 1.784531e-01 1.775169e-01 1.681368e-01 2.155246e-01 2.771353e-01 2.507859e-01 3.551809e-05
<GCONST> 5.776610e+01
<MIXTURE> 10 8.821806e-02
<MEAN> 39
 -1.488184e+00 1.571427e+01 9.784710e-01 -1.842316e+00 -6.249230e+00 -4.464915e+00 -1.000704e+01 7.161222e-01 -1.603692e+00 -3.559748e+00 3.745564e+00 -3.115739e+00 8.332589e-01 -1.923470e-01 5.023387e-01 -1.014765e-01 2.217712e-01 -1.409334e-01 8.556669e-02 -1.785402e-01 -7.099829e-03 -1.133950e-01 -2.305957e-01 6.350452e-02 -2.351544e-01 1.199673e-02 8.094648e-02 -2.088186e-01 -7.225819e-03 -1.460629e-01 7.988890e-02 -6.940996e-03 1.070814e-01 -4.462539e-02 6.570153e-02 7.716634e-02 -8.891200e-02 9.059011e-02 -1.983752e-03
<VARIANCE> 39
 8.827034e+00 2.688306e+01 1.500268e+01 1.579307e+01 2.088299e+01 2.380306e+01 2.656595e+01 2.731296e+01 3.109058e+01 4.098568e+01 2.580356e+01 1.871459e+01 5.450825e-03 3.131456e-01 4.525946e-01 4.635950e-01 6.768931e-01 6.335394e-01 7.968867e-01 9.761271e-01 9.709463e-01 1.192187e+00 9.223511e-01 9.365174e-01 9.347115e-01 1.633165e-04 5.733667e-02 7.387286e-02 9.915574e-02 1.332764e-01 1.297854e-01 1.570890e-01 1.716525e-01 2.019655e-01 2.141948e-01 1.901823e-01 1.442165e-01 1.557620e-01 1.807970e-05
<GCONST> 5.595748e+01
<MIXTURE> 11 8.821749e-02
<MEAN> 39
 -1.488211e+00 1.571425e+01 9.785168e-01 -1.842247e+00 -6.249273e+00 -4.464845e+00 -1.000702e+01 7.160894e-01 -1.603668e+00 -3.559846e+00 3.745514e+00 -3.115727e+00 8.332583e-01 -1.923464e-01 5.023448e-01 -1.014764e-01 2.217609e-01 -1.409351e-01 8.557319e-02 -1.785380e-01 -7.091979e-03 -1.133849e-01 -2.305921e-01 6.351614e-02 -2.351452e-01 1.199683e-02 8.094839e-02 -2.088194e-01 -7.228694e-03 -1.460658e-01 7.988987e-02 -6.945494e-03 1.070811e-01 -4.462717e-02 6.570223e-02 7.716962e-02 -8.891151e-02 9.058742e-02 -1.983754e-03
<VARIANCE> 39
 8.827323e+00 2.688315e+01 1.500294e+01 1.579312e+01 2.088280e+01 2.380354e+01 2.656616e+01 2.731336e+01 3.109108e+01 4.098705e+01 2.580365e+01 1.871491e+01 5.450822e-03 3.131572e-01 4.526068e-01 4.636087e-01 6.769063e-01 6.335484e-01 7.968953e-01 9.761440e-01 9.709697e-01 1.192203e+00 9.223810e-01 9.365300e-01 9.347206e-01 1.633173e-04 5.734036e-02 7.387413e-02 9.915751e-02 1.332790e-01 1.297878e-01 1.570942e-01 1.716558e-01 2.019687e-01 2.141985e-01 1.901874e-01 1.442175e-01 1.557637e-01 1.807965e-05
<GCONST> 5.595818e+01
<MIXTURE> 12 3.185551e-02
<MEAN> 39
 -4.800633e-01 1.262343e+01 -4.146461e+00 -8.133256e-01 -6.401274e+00 -6.504395e+00 -2.124579e+00 -1.493956e+00 -2.664601e+00 -8.380005e-01 -5.930922e+00 3.768838e+00 8.514785e-01 -6.512630e-01 -6.046908e-01 -7.002761e-01 -2.527887e-01 -8.366952e-01 -1.060016e+00 -1.487144e+00 -1.478802e+00 -1.105964e+00 -9.867128e-01 -9.402530e-01 -6.554397e-01 2.305100e-02 1.790681e-01 -1.541352e-02 9.683079e-02 3.860896e-03 1.119849e-01 1.411716e-01 1.805632e-01 1.446587e-01 1.609461e-01 1.289072e-01 2.773513e-01 6.408586e-02 -5.954332e-03
<VARIANCE> 39
 1.435878e+01 3.066975e+01 1.387703e+01 1.503007e+01 1.354628e+01 1.387228e+01 1.577314e+01 2.510582e+01 1.966121e+01 2.601469e+01 1.611882e+01 2.343148e+01 5.931571e-03 3.870482e-01 4.526999e-01 6.552755e-01 6.584459e-01 8.135696e-01 8.790962e-01 7.234572e-01 1.200252e+00 1.035557e+00 1.244979e+00 1.457728e+00 1.747133e+00 1.837870e-04 6.780737e-02 7.293043e-02 9.145797e-02 1.227237e-01 1.412959e-01 1.438397e-01 2.185571e-01 1.833073e-01 2.210034e-01 1.687322e-01 1.998734e-01 2.465137e-01 2.654775e-05
<GCONST> 5.714670e+01
<MIXTURE> 13 8.821762e-02
<MEAN> 39
 -1.488219e+00 1.571430e+01 9.785215e-01 -1.842263e+00 -6.249301e+00 -4.464833e+00 -1.000707e+01 7.161055e-01 -1.603660e+00 -3.559849e+00 3.745529e+00 -3.115749e+00 8.332583e-01 -1.923475e-01 5.023404e-01 -1.014747e-01 2.217606e-01 -1.409329e-01 8.557145e-02 -1.785354e-01 -7.092444e-03 -1.133811e-01 -2.305915e-01 6.351533e-02 -2.351476e-01 1.199682e-02 8.094948e-02 -2.088202e-01 -7.228269e-03 -1.460635e-01 7.989009e-02 -6.945630e-03 1.070810e-01 -4.462847e-02 6.570115e-02 7.717041e-02 -8.891108e-02 9.058688e-02 -1.983774e-03
<VARIANCE> 39
 8.827244e+00 2.688313e+01 1.500294e+01 1.579302e+01 2.088301e+01 2.380358e+01 2.656630e+01 2.731325e+01 3.109090e+01 4.098652e+01 2.580352e+01 1.871482e+01 5.450814e-03 3.131563e-01 4.526037e-01 4.636061e-01 6.769040e-01 6.335479e-01 7.968960e-01 9.761412e-01 9.709688e-01 1.192202e+00 9.223763e-01 9.365230e-01 9.347162e-01 1.633168e-04 5.733979e-02 7.387415e-02 9.915774e-02 1.332785e-01 1.297876e-01 1.570939e-01 1.716559e-01 2.019695e-01 2.141983e-01 1.901855e-01 1.442170e-01 1.557629e-01 1.807968e-05
<GCONST> 5.595805e+01
<MIXTURE> 14 3.185551e-02
<MEAN> 39
 -4.800633e-01 1.262343e+01 -4.146461e+00 -8.133256e-01 -6.401274e+00 -6.504395e+00 -2.124579e+00 -1.493956e+00 -2.664601e+00 -8.380005e-01 -5.930922e+00 3.768838e+00 8.514785e-01 -6.512630e-01 -6.046908e-01 -7.002761e-01 -2.527887e-01 -8.366952e-01 -1.060016e+00 -1.487144e+00 -1.478802e+00 -1.105964e+00 -9.867128e-01 -9.402530e-01 -6.554397e-01 2.305100e-02 1.790681e-01 -1.541352e-02 9.683079e-02 3.860896e-03 1.119849e-01 1.411716e-01 1.805632e-01 1.446587e-01 1.609461e-01 1.289072e-01 2.773513e-01 6.408586e-02 -5.954332e-03
<VARIANCE> 39
 1.435878e+01 3.066975e+01 1.387703e+01 1.503007e+01 1.354628e+01 1.387228e+01 1.577314e+01 2.510582e+01 1.966121e+01 2.601469e+01 1.611882e+01 2.343148e+01 5.931571e-03 3.870482e-01 4.526999e-01 6.552755e-01 6.584459e-01 8.135696e-01 8.790962e-01 7.234572e-01 1.200252e+00 1.035557e+00 1.244979e+00 1.457728e+00 1.747133e+00 1.837870e-04 6.780737e-02 7.293043e-02 9.145797e-02 1.227237e-01 1.412959e-01 1.438397e-01 2.185571e-01 1.833073e-01 2.210034e-01 1.687322e-01 1.998734e-01 2.465137e-01 2.654775e-05
<GCONST> 5.714670e+01
<MIXTURE> 15 3.185588e-02
<MEAN> 39
 -4.801148e-01 1.262326e+01 -4.146389e+00 -8.133538e-01 -6.401106e+00 -6.504243e+00 -2.124532e+00 -1.493932e+00 -2.664613e+00 -8.379004e-01 -5.930885e+00 3.768924e+00 8.514790e-01 -6.512844e-01 -6.046969e-01 -7.002829e-01 -2.527730e-01 -8.366917e-01 -1.060022e+00 -1.487169e+00 -1.478830e+00 -1.105976e+00 -9.867198e-01 -9.402387e-01 -6.554207e-01 2.305145e-02 1.790738e-01 -1.541235e-02 9.683058e-02 3.861543e-03 1.119758e-01 1.411662e-01 1.805569e-01 1.446579e-01 1.609444e-01 1.289109e-01 2.773479e-01 6.407925e-02 -5.954442e-03
<VARIANCE> 39
 1.435870e+01 3.067032e+01 1.387710e+01 1.502993e+01 1.354576e+01 1.387224e+01 1.577303e+01 2.510612e+01 1.966116e+01 2.601412e+01 1.611865e+01 2.343044e+01 5.931576e-03 3.870527e-01 4.526905e-01 6.552684e-01 6.584300e-01 8.135635e-01 8.790911e-01 7.234615e-01 1.200252e+00 1.035545e+00 1.244956e+00 1.457679e+00 1.747062e+00 1.837899e-04 6.780771e-02 7.292843e-02 9.145713e-02 1.227215e-01 1.412915e-01 1.438374e-01 2.185581e-01 1.833071e-01 2.210031e-01 1.687289e-01 1.998739e-01 2.465041e-01 2.654780e-05
<GCONST> 5.714629e+01
<MIXTURE> 16 2.339470e-02
<MEAN> 39
 -3.401344e+00 1.387921e+01 -5.010679e+00 -7.773512e-01 -7.214046e+00 -9.415462e+00 -3.518956e+00 -3.237618e+00 -4.218592e+00 -2.935901e+00 -5.757874e+00 3.624838e+00 8.648813e-01 -4.760129e-01 -7.618877e-01 -1.010055e+00 -1.042515e+00 -1.492790e+00 -1.615728e+00 -1.606292e+00 -1.058203e+00 -9.435430e-01 -8.969949e-01 -7.677870e-01 -5.865170e-01 1.475550e-02 5.268991e-02 -8.030412e-02 -4.358278e-03 -2.618797e-01 -1.330434e-02 4.113653e-02 1.185326e-01 -6.840796e-02 1.076696e-02 -1.163839e-01 -8.945413e-02 -2.407296e-02 -3.456447e-03
<VARIANCE> 39
 3.951581e+00 2.528453e+01 5.872905e+00 1.145551e+01 1.033118e+01 1.797840e+01 1.571060e+01 1.176897e+01 1.373249e+01 1.320497e+01 1.827909e+01 5.855584e+00 6.455732e-03 1.191411e-01 1.141014e-01 3.118567e-01 7.211010e-01 5.977544e-01 5.308774e-01 3.695503e-01 7.635024e-01 6.037890e-01 9.477854e-01 9.749330e-01 5.634375e-01 6.346447e-05 1.161027e-02 4.420423e-02 6.035857e-02 1.737850e-01 2.027674e-01 2.033424e-01 1.075433e-01 1.172636e-01 1.296668e-01 1.260011e-01 6.963141e-02 7.557423e-02 7.061032e-06
<GCONST> 3.582322e+01
<MIXTURE> 17 1.407242e-02
<MEAN> 39
 -3.620450e+00 8.393321e+00 -9.098836e+00 -4.948280e+00 -9.176082e+00 -7.727069e+00 -1.317950e+00 -2.622730e+00 4.131755e+00 6.706616e+00 1.064882e+01 1.594559e+01 9.053775e-01 -1.785858e-01 -6.940474e-02 8.880974e-02 3.758807e-01 -1.056138e-01 -3.029560e-01 -7.213294e-01 -1.763115e-01 1.013862e-01 3.775797e-01 1.336418e+00 1.256786e+00 1.637696e-02 3.928625e-01 2.667349e-01 3.039729e-01 2.668286e-01 3.529265e-01 2.765220e-01 3.694857e-01 3.991684e-01 8.209392e-02 -1.855431e-01 -4.935883e-01 -7.330831e-01 -7.660715e-03
<VARIANCE> 39
 1.918075e+01 3.236915e+01 1.858447e+01 1.372031e+01 2.635637e+01 1.851906e+01 2.249056e+01 3.122076e+01 5.353579e+01 5.880781e+01 5.067513e+01 6.035271e+01 4.737100e-03 4.919720e-01 5.510507e-01 8.001549e-01 9.482672e-01 1.357349e+00 9.562250e-01 1.268644e+00 1.043813e+00 9.498909e-01 1.810000e+00 2.668730e+00 3.193469e+00 1.234041e-04 6.813951e-02 9.340361e-02 1.375156e-01 1.539343e-01 2.653827e-01 1.445605e-01 2.246849e-01 1.934444e-01 3.125970e-01 4.204856e-01 3.357309e-01 3.543945e-01 3.757176e-05
<GCONST> 7.011103e+01
<MIXTURE> 18 5.495146e-02
<MEAN> 39
 -2.560672e-01 1.072587e+01 -3.134244e+00 -1.445620e+00 -4.856705e+00 -4.306165e+00 -2.300315e+00 -1.655628e+00 -4.162686e+00 -2.170303e+00 -3.283323e+00 2.614499e+00 8.559843e-01 9.275009e-02 4.852932e-01 2.023182e-01 6.683860e-01 2.111502e-01 1.329154e-01 3.816952e-02 -1.199625e-01 -1.740737e-02 -9.952630e-02 -2.249839e-02 7.646110e-01 1.534169e-02 9.089962e-02 -4.643311e-02 1.829446e-02 -9.525024e-02 8.158001e-02 -5.859015e-02 6.442599e-02 2.098480e-01 3.646995e-01 2.395319e-01 1.782370e-01 -1.511823e-01 -3.278907e-03
<VARIANCE> 39
 1.113721e+01 2.950403e+01 1.703494e+01 1.692726e+01 2.741361e+01 3.581062e+01 2.728338e+01 3.108289e+01 1.812156e+01 2.278125e+01 3.726190e+01 3.084786e+01 7.740990e-03 2.925704e-01 7.042300e-01 9.424541e-01 9.131196e-01 1.178597e+00 1.207593e+00 1.398815e+00 1.568318e+00 1.784837e+00 1.839608e+00 1.987562e+00 1.602825e+00 1.365448e-04 6.741619e-02 8.478362e-02 1.241609e-01 1.675000e-01 2.546987e-01 2.544005e-01 2.235880e-01 3.442757e-01 3.028737e-01 2.331182e-01 3.285999e-01 2.919656e-01 3.396911e-05
<GCONST> 6.821175e+01
<MIXTURE> 19 5.495279e-02
<MEAN> 39
 -2.562068e-01 1.072576e+01 -3.134109e+00 -1.445579e+00 -4.856436e+00 -4.305929e+00 -2.300105e+00 -1.655462e+00 -4.162637e+00 -2.170229e+00 -3.283312e+00 2.614808e+00 8.559873e-01 9.274863e-02 4.852247e-01 2.023319e-01 6.684020e-01 2.111918e-01 1.328992e-01 3.811935e-02 -1.199785e-01 -1.739414e-02 -9.950291e-02 -2.254666e-02 7.645519e-01 1.534269e-02 9.091298e-02 -4.642968e-02 1.828899e-02 -9.524786e-02 8.154971e-02 -5.860212e-02 6.441527e-02 2.098483e-01 3.646933e-01 2.395391e-01 1.782386e-01 -1.511889e-01 -3.279378e-03
<VARIANCE> 39
 1.113711e+01 2.950515e+01 1.703325e+01 1.692678e+01 2.741146e+01 3.581014e+01 2.728252e+01 3.108051e+01 1.812173e+01 2.278111e+01 3.726042e+01 3.084771e+01 7.741012e-03 2.925584e-01 7.041839e-01 9.422941e-01 9.130526e-01 1.178495e+00 1.207489e+00 1.398725e+00 1.568176e+00 1.784676e+00 1.839471e+00 1.987498e+00 1.602793e+00 1.365402e-04 6.742049e-02 8.477921e-02 1.241508e-01 1.674947e-01 2.546743e-01 2.543892e-01 2.235672e-01 3.442286e-01 3.028588e-01 2.331088e-01 3.285916e-01 2.919606e-01 3.397075e-05
<GCONST> 6.820989e+01
<MIXTURE> 20 6.255214e-02
<MEAN> 39
 -1.534823e+00 1.356534e+01 -4.964073e-01 -3.781460e+00 -6.519163e+00 -5.586451e+00 -1.131050e+01 -1.024563e+00 -1.748682e+00 -3.044806e+00 4.155982e+00 -4.882823e+00 8.388761e-01 -7.191998e-01 2.007336e-01 -3.950004e-02 -1.349925e-01 -4.321976e-01 -5.337834e-01 -2.878052e-01 -5.973617e-01 -3.768265e-01 -6.180222e-01 -9.443013e-02 -6.563264e-01 2.960383e-02 1.144589e-01 -2.506821e-01 8.776788e-02 2.292551e-01 2.569147e-01 2.209582e-01 4.798267e-01 1.909421e-01 8.823146e-02 1.325753e-01 -1.238464e-01 3.348110e-01 -1.199309e-02
<VARIANCE> 39
 7.022212e+00 4.158187e+01 1.547718e+01 2.015591e+01 2.130702e+01 3.476582e+01 3.964591e+01 2.499442e+01 2.767478e+01 2.579878e+01 3.159013e+01 1.919494e+01 9.535397e-03 5.975722e-01 6.623101e-01 7.729451e-01 1.172382e+00 8.718256e-01 9.241945e-01 1.108466e+00 1.946167e+00 1.367087e+00 9.940104e-01 1.437109e+00 1.963162e+00 3.682250e-04 1.105702e-01 1.782182e-01 1.211713e-01 1.827917e-01 1.988611e-01 1.811768e-01 1.992928e-01 2.650677e-01 2.126893e-01 1.767547e-01 2.243016e-01 1.916195e-01 1.590824e-04
<GCONST> 6.871819e+01
<STATE> 4
<NUMMIXES> 20
<MIXTURE> 1 4.999781e-02
<MEAN> 39
 -1.248180e+00 1.296347e+01 -3.013776e+00 -1.722142e+00 -6.246781e+00 -4.872377e+00 -4.248836e+00 -7.550107e-01 1.566949e+00 2.460959e-01 4.390891e+00 3.513528e+00 8.840568e-01 1.362280e-01 3.952540e-01 2.234839e-01 3.299636e-01 2.411349e-01 3.854733e-01 2.434993e-01 1.432620e-02 2.917519e-01 3.860739e-01 2.538072e-01 -5.368788e-02 1.006022e-02 6.487515e-02 -1.528748e-01 2.887110e-04 -1.861950e-01 1.151376e-01 -6.952733e-02 2.273962e-02 -1.203941e-02 5.432460e-03 -3.775144e-02 -2.557070e-01 -1.999017e-01 -4.278494e-03
<VARIANCE> 39
 1.632186e+01 4.706363e+01 3.182514e+01 2.397452e+01 2.346622e+01 3.101417e+01 4.569086e+01 3.233609e+01 5.118015e+01 6.911573e+01 5.383387e+01 1.096058e+02 8.268218e-03 5.116529e-01 8.514002e-01 1.144479e+00 1.366874e+00 2.075330e+00 1.486861e+00 1.688948e+00 1.554752e+00 1.468378e+00 2.008098e+00 2.027983e+00 2.458235e+00 1.205922e-04 7.292606e-02 1.276384e-01 1.937256e-01 2.122262e-01 2.270282e-01 2.455056e-01 2.495538e-01 2.453776e-01 2.349981e-01 2.682263e-01 3.035509e-01 3.073336e-01 3.411774e-05
<GCONST> 7.730830e+01
<MIXTURE> 2 2.666816e-02
<MEAN> 39
 -1.406359e+00 1.200728e+01 -5.116044e+00 -2.028953e+00 -7.608408e+00 -7.246956e+00 -4.811120e+00 -3.492342e+00 -5.463726e+00 -3.114203e+00 -5.916685e+00 8.313035e-01 8.843693e-01 3.810650e-01 4.103755e-01 5.103146e-01 7.499057e-01 7.343190e-01 7.849368e-01 5.901597e-01 5.201467e-01 7.228201e-01 4.371356e-01 5.522474e-01 4.262006e-01 7.600953e-03 9.379469e-02 9.827600e-02 1.790625e-01 7.576210e-02 2.418486e-01 1.625362e-01 3.101987e-01 3.141699e-01 3.054514e-01 2.587929e-01 2.524106e-01 1.005048e-01 -3.085871e-03
<VARIANCE> 39
 1.038341e+01 3.571081e+01 1.516517e+01 1.579278e+01 1.437387e+01 1.865824e+01 1.847747e+01 2.496568e+01 1.825581e+01 2.464980e+01 2.634590e+01 3.729358e+01 6.563289e-03 2.123080e-01 4.238161e-01 3.617931e-01 6.280562e-01 6.453121e-01 8.904392e-01 1.032211e+00 8.668179e-01 7.414318e-01 8.497823e-01 9.659795e-01 9.889312e-01 5.737262e-05 3.842965e-02 5.848135e-02 7.677177e-02 1.141917e-01 1.288660e-01 1.347688e-01 1.471437e-01 1.558745e-01 1.806145e-01 1.714832e-01 2.146591e-01 2.052860e-01 1.176741e-05
<GCONST> 5.133150e+01
<MIXTURE> 3 2.666835e-02
<MEAN> 39
 -1.406319e+00 1.200726e+01 -5.116320e+00 -2.029062e+00 -7.608734e+00 -7.247213e+00 -4.811278e+00 -3.492659e+00 -5.463811e+00 -3.114464e+00 -5.916941e+00 8.312002e-01 8.843668e-01 3.810574e-01 4.103831e-01 5.103006e-01 7.498847e-01 7.343141e-01 7.849381e-01 5.901507e-01 5.201432e-01 7.228051e-01 4.371323e-01 5.522492e-01 4.261886e-01 7.600618e-03 9.380317e-02 9.829631e-02 1.790836e-01 7.578521e-02 2.418791e-01 1.625673e-01 3.102311e-01 3.141967e-01 3.054688e-01 2.588128e-01 2.524218e-01 1.005327e-01 -3.085760e-03
<VARIANCE> 39
 1.038352e+01 3.570957e+01 1.516582e+01 1.579319e+01 1.437383e+01 1.865777e+01 1.847686e+01 2.496540e+01 1.825648e+01 2.465023e+01 2.634514e+01 3.729366e+01 6.563566e-03 2.122939e-01 4.238041e-01 3.617745e-01 6.280327e-01 6.452889e-01 8.904114e-01 1.032167e+00 8.667934e-01 7.414171e-01 8.497568e-01 9.659344e-01 9.888998e-01 5.737173e-05 3.842895e-02 5.848124e-02 7.676948e-02 1.141953e-01 1.288636e-01 1.347688e-01 1.471408e-01 1.558693e-01 1.806167e-01 1.714801e-01 2.146568e-01 2.052886e-01 1.176706e-05
<GCONST> 5.133097e+01
<MIXTURE> 4 5.497236e-02
<MEAN> 39
 -6.889578e-01 1.046502e+01 -1.447535e+00 -8.678322e-03 -3.331387e+00 -3.232260e+00 -4.410787e+00 8.601030e-01 -2.779436e+00 -4.440034e-02 -8.233691e-01 1.651573e+00 9.069395e-01 1.546337e-01 2.174743e-01 1.400052e-01 2.951538e-01 3.181790e-01 2.200886e-01 2.372236e-01 1.867010e-01 2.278627e-01 1.544250e-01 1.921214e-01 1.763833e-01 1.580007e-03 -3.733085e-02 -8.070055e-02 -8.384886e-02 -1.092228e-01 -9.972756e-02 -1.272436e-01 -4.750147e-02 -1.037473e-01 -3.103641e-02 -7.611898e-02 -5.257854e-02 -1.109714e-01 -1.456719e-03
<VARIANCE> 39
 9.418354e+00 4.272133e+01 8.742731e+00 1.293872e+01 1.622563e+01 2.041669e+01 2.880591e+01 2.368078e+01 1.955078e+01 1.893632e+01 3.749324e+01 3.939587e+01 5.927494e-03 9.172159e-02 1.392782e-01 2.533016e-01 3.165023e-01 3.764372e-01 4.490845e-01 4.563250e-01 5.192075e-01 4.330497e-01 4.725638e-01 5.006644e-01 4.781215e-01 3.754082e-05 1.360829e-02 2.768078e-02 3.687884e-02 5.793444e-02 7.706977e-02 6.832376e-02 8.560960e-02 7.378545e-02 9.554847e-02 8.673999e-02 9.791114e-02 7.731742e-02 3.730629e-06
<GCONST> 3.298808e+01
<MIXTURE> 5 5.036925e-02
<MEAN> 39
 -1.251367e+00 1.356944e+01 -5.109524e+00 -2.453264e+00 -7.866757e+00 -8.763474e+00 -6.075654e+00 -3.050435e+00 -3.917192e+00 -3.163320e+00 -4.184064e+00 7.895090e-01 8.641081e-01 1.957924e-01 3.046680e-01 2.320393e-01 3.332308e-01 4.587765e-01 4.501209e-01 4.690735e-01 3.515308e-01 4.306744e-01 3.411767e-01 3.525256e-01 2.255453e-01 6.031391e-04 3.278473e-02 2.033829e-02 8.708745e-02 6.176098e-02 1.527483e-01 1.033994e-01 1.322208e-01 1.017000e-01 1.092448e-01 1.142701e-01 1.078736e-01 3.586902e-02 -1.299496e-03
<VARIANCE> 39
 1.556272e+01 2.501134e+01 2.003396e+01 1.439186e+01 1.445441e+01 2.095278e+01 2.714282e+01 3.305672e+01 2.233851e+01 2.946579e+01 4.345339e+01 5.318855e+01 8.335005e-03 7.505304e-02 1.364909e-01 2.368711e-01 4.139735e-01 3.931445e-01 3.732559e-01 5.043811e-01 4.794862e-01 4.372274e-01 4.574915e-01 4.691646e-01 4.524627e-01 3.754082e-05 1.515384e-02 3.120701e-02 5.408537e-02 5.808380e-02 7.197823e-02 1.011512e-01 9.643720e-02 1.237154e-01 1.053458e-01 7.930945e-02 1.013171e-01 1.042682e-01 3.730629e-06
<GCONST> 3.706992e+01
<MIXTURE> 6 7.674470e-02
<MEAN> 39
 -2.087791e+00 1.303611e+01 -5.510826e-01 -1.917276e+00 -3.755018e+00 -4.530023e+00 -6.481184e+00 -2.764552e-01 -1.361359e+00 -3.235068e+00 2.510509e+00 -1.292136e+00 8.888819e-01 1.225787e-03 2.464886e-02 -2.295632e-02 -7.382435e-02 6.435138e-02 -4.723732e-02 6.007620e-02 -2.520651e-02 4.417247e-02 -1.722331e-02 -1.023728e-02 -9.663142e-03 2.552013e-04 1.168919e-02 -3.006402e-02 1.074001e-02 -3.605370e-02 -2.154103e-03 -2.379631e-02 9.793368e-03 1.118920e-02 8.628449e-03 2.599821e-02 -1.036836e-02 1.272885e-02 -9.903400e-04
<VARIANCE> 39
 7.258682e+00 5.301957e+01 1.027800e+01 9.242454e+00 1.181945e+01 1.716558e+01 2.837666e+01 1.525553e+01 1.874501e+01 2.574837e+01 2.847677e+01 2.222151e+01 6.783080e-03 5.944085e-02 9.059864e-02 1.101230e-01 1.574152e-01 1.653122e-01 1.912052e-01 2.041712e-01 2.272406e-01 2.454949e-01 2.416036e-01 1.826501e-01 2.035967e-01 3.754082e-05 9.205867e-03 1.633986e-02 1.954723e-02 2.494496e-02 3.079751e-02 3.118764e-02 3.292696e-02 3.539876e-02 4.515871e-02 3.999104e-02 3.086643e-02 4.085381e-02 3.730629e-06
<GCONST> 1.347026e+01
<MIXTURE> 7 7.674588e-02
<MEAN> 39
 -2.087857e+00 1.303661e+01 -5.509113e-01 -1.917315e+00 -3.755240e+00 -4.530002e+00 -6.481605e+00 -2.764653e-01 -1.361269e+00 -3.235380e+00 2.510767e+00 -1.292489e+00 8.888784e-01 1.219265e-03 2.465340e-02 -2.295851e-02 -7.382541e-02 6.435736e-02 -4.724454e-02 6.007576e-02 -2.520804e-02 4.417159e-02 -1.722190e-02 -1.023751e-02 -9.664331e-03 2.553762e-04 1.168977e-02 -3.006699e-02 1.073972e-02 -3.605567e-02 -2.152861e-03 -2.379856e-02 9.796302e-03 1.118845e-02 8.627152e-03 2.600096e-02 -1.036904e-02 1.273425e-02 -9.903741e-04
<VARIANCE> 39
 7.258999e+00 5.301838e+01 1.027836e+01 9.242675e+00 1.182003e+01 1.716556e+01 2.837643e+01 1.525644e+01 1.874529e+01 2.574963e+01 2.847610e+01 2.222053e+01 6.783010e-03 5.944313e-02 9.060089e-02 1.101259e-01 1.574191e-01 1.653176e-01 1.912110e-01 2.041764e-01 2.272485e-01 2.455064e-01 2.416109e-01 1.826571e-01 2.036024e-01 3.754082e-05 9.206473e-03 1.634046e-02 1.954785e-02 2.494595e-02 3.079855e-02 3.118879e-02 3.292789e-02 3.540003e-02 4.516130e-02 3.999214e-02 3.086773e-02 4.085520e-02 3.730629e-06
<GCONST> 1.347125e+01
<MIXTURE> 8 2.783203e-02
<MEAN> 39
 -7.074324e-01 1.180028e+01 -3.856765e+00 -1.556552e-01 -5.183977e+00 -7.019666e+00 -3.389746e+00 -2.077232e+00 -3.719304e+00 -1.548546e+00 -5.268865e+00 3.409216e+00 9.005440e-01 -1.224310e-01 -3.102166e-01 -4.055122e-01 -2.403543e-01 -3.681462e-01 -3.725441e-01 -4.320012e-01 -4.562035e-01 -3.130567e-01 -3.025564e-01 -2.445414e-01 -4.213859e-01 2.289501e-03 -3.060533e-02 -3.796818e-02 -3.900275e-02 -9.608264e-02 -3.820691e-02 -2.582424e-02 6.003996e-03 -9.349003e-03 -5.116531e-03 -1.455130e-02 4.337066e-02 -4.675455e-02 -1.918460e-03
<VARIANCE> 39
 1.427018e+01 3.122813e+01 1.056610e+01 1.290580e+01 1.648186e+01 2.711339e+01 1.806321e+01 3.128132e+01 1.720466e+01 2.168738e+01 2.716595e+01 3.531628e+01 4.933613e-03 9.164865e-02 1.494686e-01 2.202277e-01 3.499575e-01 3.647378e-01 3.925138e-01 3.918580e-01 4.303552e-01 4.743393e-01 4.120144e-01 4.730291e-01 5.110558e-01 4.068434e-05 1.393958e-02 2.744658e-02 3.972512e-02 4.844059e-02 7.012041e-02 7.009646e-02 8.607972e-02 9.999713e-02 8.329944e-02 7.290295e-02 8.302567e-02 9.138129e-02 4.352518e-06
<GCONST> 3.234616e+01
<MIXTURE> 9 5.036271e-02
<MEAN> 39
 -1.251322e+00 1.357006e+01 -5.108980e+00 -2.453107e+00 -7.866626e+00 -8.762949e+00 -6.075747e+00 -3.049887e+00 -3.916550e+00 -3.162977e+00 -4.182766e+00 7.899044e-01 8.641078e-01 1.957925e-01 3.046927e-01 2.320150e-01 3.332492e-01 4.587761e-01 4.501304e-01 4.690355e-01 3.514691e-01 4.306441e-01 3.411821e-01 3.525085e-01 2.255389e-01 6.035388e-04 3.276954e-02 2.029650e-02 8.705936e-02 6.172279e-02 1.527320e-01 1.033645e-01 1.321703e-01 1.016397e-01 1.092008e-01 1.142593e-01 1.078369e-01 3.583492e-02 -1.299546e-03
<VARIANCE> 39
 1.556254e+01 2.501320e+01 2.003716e+01 1.439187e+01 1.445423e+01 2.095191e+01 2.714762e+01 3.306041e+01 2.234227e+01 2.946633e+01 4.346203e+01 5.320345e+01 8.334397e-03 7.505576e-02 1.365133e-01 2.369036e-01 4.140536e-01 3.931746e-01 3.732848e-01 5.044636e-01 4.795457e-01 4.372470e-01 4.575327e-01 4.692455e-01 4.525472e-01 3.754082e-05 1.515455e-02 3.120773e-02 5.409323e-02 5.808808e-02 7.198532e-02 1.011587e-01 9.644992e-02 1.237372e-01 1.053590e-01 7.931995e-02 1.013261e-01 1.042705e-01 3.730629e-06
<GCONST> 3.707360e+01
<MIXTURE> 10 7.674588e-02
<MEAN> 39
 -2.087857e+00 1.303661e+01 -5.509113e-01 -1.917315e+00 -3.755240e+00 -4.530002e+00 -6.481605e+00 -2.764653e-01 -1.361269e+00 -3.235380e+00 2.510767e+00 -1.292489e+00 8.888784e-01 1.219265e-03 2.465340e-02 -2.295851e-02 -7.382541e-02 6.435736e-02 -4.724454e-02 6.007576e-02 -2.520804e-02 4.417159e-02 -1.722190e-02 -1.023751e-02 -9.664331e-03 2.553762e-04 1.168977e-02 -3.006699e-02 1.073972e-02 -3.605567e-02 -2.152861e-03 -2.379856e-02 9.796302e-03 1.118845e-02 8.627152e-03 2.600096e-02 -1.036904e-02 1.273425e-02 -9.903741e-04
<VARIANCE> 39
 7.258999e+00 5.301838e+01 1.027836e+01 9.242675e+00 1.182003e+01 1.716556e+01 2.837643e+01 1.525644e+01 1.874529e+01 2.574963e+01 2.847610e+01 2.222053e+01 6.783010e-03 5.944313e-02 9.060089e-02 1.101259e-01 1.574191e-01 1.653176e-01 1.912110e-01 2.041764e-01 2.272485e-01 2.455064e-01 2.416109e-01 1.826571e-01 2.036024e-01 3.754082e-05 9.206473e-03 1.634046e-02 1.954785e-02 2.494595e-02 3.079855e-02 3.118879e-02 3.292789e-02 3.540003e-02 4.516130e-02 3.999214e-02 3.086773e-02 4.085520e-02 3.730629e-06
<GCONST> 1.347125e+01
<MIXTURE> 11 7.674588e-02
<MEAN> 39
 -2.087857e+00 1.303661e+01 -5.509113e-01 -1.917315e+00 -3.755240e+00 -4.530002e+00 -6.481605e+00 -2.764653e-01 -1.361269e+00 -3.235380e+00 2.510767e+00 -1.292489e+00 8.888784e-01 1.219265e-03 2.465340e-02 -2.295851e-02 -7.382541e-02 6.435736e-02 -4.724454e-02 6.007576e-02 -2.520804e-02 4.417159e-02 -1.722190e-02 -1.023751e-02 -9.664331e-03 2.553762e-04 1.168977e-02 -3.006699e-02 1.073972e-02 -3.605567e-02 -2.152861e-03 -2.379856e-02 9.796302e-03 1.118845e-02 8.627152e-03 2.600096e-02 -1.036904e-02 1.273425e-02 -9.903741e-04
<VARIANCE> 39
 7.258999e+00 5.301838e+01 1.027836e+01 9.242675e+00 1.182003e+01 1.716556e+01 2.837643e+01 1.525644e+01 1.874529e+01 2.574963e+01 2.847610e+01 2.222053e+01 6.783010e-03 5.944313e-02 9.060089e-02 1.101259e-01 1.574191e-01 1.653176e-01 1.912110e-01 2.041764e-01 2.272485e-01 2.455064e-01 2.416109e-01 1.826571e-01 2.036024e-01 3.754082e-05 9.206473e-03 1.634046e-02 1.954785e-02 2.494595e-02 3.079855e-02 3.118879e-02 3.292789e-02 3.540003e-02 4.516130e-02 3.999214e-02 3.086773e-02 4.085520e-02 3.730629e-06
<GCONST> 1.347125e+01
<MIXTURE> 12 2.783164e-02
<MEAN> 39
 -7.074271e-01 1.180025e+01 -3.856789e+00 -1.557001e-01 -5.184045e+00 -7.019684e+00 -3.389792e+00 -2.077274e+00 -3.719326e+00 -1.548590e+00 -5.268951e+00 3.409081e+00 9.005435e-01 -1.224336e-01 -3.102173e-01 -4.055190e-01 -2.403598e-01 -3.681521e-01 -3.725490e-01 -4.320105e-01 -4.562132e-01 -3.130669e-01 -3.025656e-01 -2.445448e-01 -4.213930e-01 2.289509e-03 -3.060264e-02 -3.796502e-02 -3.899792e-02 -9.607830e-02 -3.819986e-02 -2.581846e-02 6.010119e-03 -9.341125e-03 -5.110161e-03 -1.454703e-02 4.337537e-02 -4.674865e-02 -1.918463e-03
<VARIANCE> 39
 1.427017e+01 3.122847e+01 1.056628e+01 1.290589e+01 1.648179e+01 2.711344e+01 1.806334e+01 3.128210e+01 1.720457e+01 2.168754e+01 2.716545e+01 3.531591e+01 4.933662e-03 9.165128e-02 1.494713e-01 2.202312e-01 3.499633e-01 3.647456e-01 3.925180e-01 3.918684e-01 4.303631e-01 4.743480e-01 4.120224e-01 4.730374e-01 5.110652e-01 4.068421e-05 1.393961e-02 2.744708e-02 3.972599e-02 4.844117e-02 7.012159e-02 7.009687e-02 8.608187e-02 9.999961e-02 8.330068e-02 7.290461e-02 8.302648e-02 9.138241e-02 4.352576e-06
<GCONST> 3.234663e+01
<MIXTURE> 13 7.674608e-02
<MEAN> 39
 -2.087789e+00 1.303614e+01 -5.510805e-01 -1.917276e+00 -3.755025e+00 -4.530020e+00 -6.481215e+00 -2.764436e-01 -1.361366e+00 -3.235072e+00 2.510527e+00 -1.292161e+00 8.888818e-01 1.225691e-03 2.464855e-02 -2.295622e-02 -7.382479e-02 6.435158e-02 -4.723768e-02 6.007591e-02 -2.520697e-02 4.417262e-02 -1.722392e-02 -1.023664e-02 -9.662995e-03 2.552096e-04 1.168926e-02 -3.006414e-02 1.074006e-02 -3.605392e-02 -2.153889e-03 -2.379622e-02 9.793611e-03 1.118906e-02 8.628435e-03 2.599803e-02 -1.036826e-02 1.272914e-02 -9.903413e-04
<VARIANCE> 39
 7.258635e+00 5.301962e+01 1.027797e+01 9.242440e+00 1.181945e+01 1.716555e+01 2.837667e+01 1.525551e+01 1.874495e+01 2.574817e+01 2.847671e+01 2.222134e+01 6.783040e-03 5.944070e-02 9.059840e-02 1.101226e-01 1.574149e-01 1.653124e-01 1.912044e-01 2.041713e-01 2.272404e-01 2.454948e-01 2.416037e-01 1.826496e-01 2.035961e-01 3.754082e-05 9.205854e-03 1.633978e-02 1.954725e-02 2.494496e-02 3.079743e-02 3.118758e-02 3.292696e-02 3.539871e-02 4.515877e-02 3.999108e-02 3.086646e-02 4.085372e-02 3.730629e-06
<GCONST> 1.347019e+01
<MIXTURE> 14 2.783164e-02
<MEAN> 39
 -7.074271e-01 1.180025e+01 -3.856789e+00 -1.557001e-01 -5.184045e+00 -7.019684e+00 -3.389792e+00 -2.077274e+00 -3.719326e+00 -1.548590e+00 -5.268951e+00 3.409081e+00 9.005435e-01 -1.224336e-01 -3.102173e-01 -4.055190e-01 -2.403598e-01 -3.681521e-01 -3.725490e-01 -4.320105e-01 -4.562132e-01 -3.130669e-01 -3.025656e-01 -2.445448e-01 -4.213930e-01 2.289509e-03 -3.060264e-02 -3.796502e-02 -3.899792e-02 -9.607830e-02 -3.819986e-02 -2.581846e-02 6.010119e-03 -9.341125e-03 -5.110161e-03 -1.454703e-02 4.337537e-02 -4.674865e-02 -1.918463e-03
<VARIANCE> 39
 1.427017e+01 3.122847e+01 1.056628e+01 1.290589e+01 1.648179e+01 2.711344e+01 1.806334e+01 3.128210e+01 1.720457e+01 2.168754e+01 2.716545e+01 3.531591e+01 4.933662e-03 9.165128e-02 1.494713e-01 2.202312e-01 3.499633e-01 3.647456e-01 3.925180e-01 3.918684e-01 4.303631e-01 4.743480e-01 4.120224e-01 4.730374e-01 5.110652e-01 4.068421e-05 1.393961e-02 2.744708e-02 3.972599e-02 4.844117e-02 7.012159e-02 7.009687e-02 8.608187e-02 9.999961e-02 8.330068e-02 7.290461e-02 8.302648e-02 9.138241e-02 4.352576e-06
<GCONST> 3.234663e+01
<MIXTURE> 15 2.783170e-02
<MEAN> 39
 -7.074023e-01 1.180026e+01 -3.856785e+00 -1.556911e-01 -5.184048e+00 -7.019691e+00 -3.389802e+00 -2.077249e+00 -3.719335e+00 -1.548563e+00 -5.268967e+00 3.409057e+00 9.005438e-01 -1.224310e-01 -3.102156e-01 -4.055147e-01 -2.403523e-01 -3.681464e-01 -3.725449e-01 -4.320109e-01 -4.562135e-01 -3.130659e-01 -3.025638e-01 -2.445485e-01 -4.213966e-01 2.289660e-03 -3.060231e-02 -3.796500e-02 -3.899768e-02 -9.607971e-02 -3.819974e-02 -2.581606e-02 6.013101e-03 -9.339564e-03 -5.108498e-03 -1.454691e-02 4.337698e-02 -4.674711e-02 -1.918527e-03
<VARIANCE> 39
 1.427004e+01 3.122864e+01 1.056619e+01 1.290594e+01 1.648173e+01 2.711353e+01 1.806339e+01 3.128227e+01 1.720470e+01 2.168755e+01 2.716533e+01 3.531561e+01 4.933638e-03 9.165314e-02 1.494727e-01 2.202330e-01 3.499651e-01 3.647459e-01 3.925195e-01 3.918676e-01 4.303646e-01 4.743484e-01 4.120252e-01 4.730422e-01 5.110731e-01 4.068501e-05 1.393987e-02 2.744770e-02 3.972653e-02 4.844202e-02 7.012247e-02 7.009666e-02 8.608285e-02 1.000012e-01 8.330200e-02 7.290602e-02 8.302771e-02 9.138528e-02 4.352752e-06
<GCONST> 3.234696e+01
<MIXTURE> 16 3.366098e-02
<MEAN> 39
 -8.883307e-01 9.242518e+00 -2.256869e+00 -1.402137e+00 -2.731955e+00 -2.572877e+00 -7.609459e-01 1.502159e+00 -1.602157e+00 -9.914247e-01 -2.735837e+00 5.085923e-01 8.802551e-01 -8.688216e-02 -2.660630e-01 -4.657829e-01 -4.568698e-01 -4.494417e-01 -3.919949e-01 -4.613671e-01 -5.152302e-01 -4.402417e-01 -5.546312e-01 -4.898906e-01 -5.008273e-01 -3.246197e-04 -8.463203e-02 -1.653976e-01 -2.155842e-01 -2.362055e-01 -2.925334e-01 -2.818062e-01 -3.392136e-01 -3.085080e-01 -2.541461e-01 -1.974728e-01 -2.015156e-01 -2.275194e-01 -8.721818e-04
<VARIANCE> 39
 4.228441e+00 4.944864e+01 9.466413e+00 1.012353e+01 1.322762e+01 1.450801e+01 1.407243e+01 2.068932e+01 1.687753e+01 1.694148e+01 2.031570e+01 1.723419e+01 1.276125e-02 7.511617e-02 1.400477e-01 1.280801e-01 1.769384e-01 2.614049e-01 3.729853e-01 2.714495e-01 3.488827e-01 4.196818e-01 5.373389e-01 4.401928e-01 3.975022e-01 3.754082e-05 1.085654e-02 3.582925e-02 3.558267e-02 4.902991e-02 6.640536e-02 6.357513e-02 5.483205e-02 7.501061e-02 5.391720e-02 6.677444e-02 5.774480e-02 5.959984e-02 3.730629e-06
<GCONST> 2.425530e+01
<MIXTURE> 17 2.666894e-02
<MEAN> 39
 -1.406294e+00 1.200726e+01 -5.116496e+00 -2.029118e+00 -7.608906e+00 -7.247388e+00 -4.811260e+00 -3.492874e+00 -5.463792e+00 -3.114582e+00 -5.917078e+00 8.312192e-01 8.843655e-01 3.810658e-01 4.103989e-01 5.103161e-01 7.499018e-01 7.343270e-01 7.849606e-01 5.901670e-01 5.201715e-01 7.228022e-01 4.371501e-01 5.522681e-01 4.261968e-01 7.600475e-03 9.380941e-02 9.830602e-02 1.790906e-01 7.579981e-02 2.418932e-01 1.625845e-01 3.102432e-01 3.142083e-01 3.054686e-01 2.588239e-01 2.524250e-01 1.005468e-01 -3.085703e-03
<VARIANCE> 39
 1.038338e+01 3.570911e+01 1.516574e+01 1.579321e+01 1.437368e+01 1.865696e+01 1.847601e+01 2.496536e+01 1.825662e+01 2.465027e+01 2.634439e+01 3.729305e+01 6.563718e-03 2.122889e-01 4.237807e-01 3.617502e-01 6.280119e-01 6.452634e-01 8.903942e-01 1.032126e+00 8.667502e-01 7.413874e-01 8.497431e-01 9.659014e-01 9.888767e-01 5.737135e-05 3.842774e-02 5.847999e-02 7.676786e-02 1.141960e-01 1.288618e-01 1.347665e-01 1.471378e-01 1.558660e-01 1.806152e-01 1.714759e-01 2.146524e-01 2.052854e-01 1.176686e-05
<GCONST> 5.133017e+01
<MIXTURE> 18 5.497227e-02
<MEAN> 39
 -6.889514e-01 1.046497e+01 -1.447519e+00 -8.656749e-03 -3.331377e+00 -3.232239e+00 -4.410822e+00 8.601130e-01 -2.779464e+00 -4.441486e-02 -8.233589e-01 1.651528e+00 9.069403e-01 1.546335e-01 2.174736e-01 1.400038e-01 2.951516e-01 3.181776e-01 2.200870e-01 2.372206e-01 1.866971e-01 2.278613e-01 1.544215e-01 1.921187e-01 1.763788e-01 1.580001e-03 -3.733017e-02 -8.069922e-02 -8.384689e-02 -1.092213e-01 -9.972547e-02 -1.272422e-01 -4.749970e-02 -1.037456e-01 -3.103301e-02 -7.611618e-02 -5.257659e-02 -1.109692e-01 -1.456722e-03
<VARIANCE> 39
 9.418237e+00 4.272139e+01 8.742637e+00 1.293871e+01 1.622556e+01 2.041656e+01 2.880599e+01 2.368066e+01 1.955061e+01 1.893609e+01 3.749311e+01 3.939543e+01 5.927345e-03 9.172160e-02 1.392783e-01 2.533017e-01 3.165027e-01 3.764378e-01 4.490850e-01 4.563260e-01 5.192107e-01 4.330520e-01 4.725640e-01 5.006611e-01 4.781216e-01 3.754082e-05 1.360823e-02 2.768087e-02 3.687880e-02 5.793456e-02 7.706939e-02 6.832346e-02 8.560972e-02 7.378546e-02 9.554804e-02 8.674005e-02 9.791026e-02 7.731743e-02 3.730629e-06
<GCONST> 3.298798e+01
<MIXTURE> 19 5.497270e-02
<MEAN> 39
 -6.889456e-01 1.046514e+01 -1.447516e+00 -8.678135e-03 -3.331447e+00 -3.232265e+00 -4.410903e+00 8.601509e-01 -2.779445e+00 -4.442029e-02 -8.233019e-01 1.651526e+00 9.069389e-01 1.546321e-01 2.174718e-01 1.399998e-01 2.951497e-01 3.181756e-01 2.200844e-01 2.372156e-01 1.866940e-01 2.278582e-01 1.544221e-01 1.921193e-01 1.763803e-01 1.580020e-03 -3.733033e-02 -8.070098e-02 -8.384807e-02 -1.092221e-01 -9.972449e-02 -1.272435e-01 -4.749919e-02 -1.037478e-01 -3.103487e-02 -7.611734e-02 -5.257723e-02 -1.109712e-01 -1.456717e-03
<VARIANCE> 39
 9.418384e+00 4.272137e+01 8.742769e+00 1.293874e+01 1.622591e+01 2.041671e+01 2.880649e+01 2.368084e+01 1.955087e+01 1.893657e+01 3.749346e+01 3.939621e+01 5.927426e-03 9.172191e-02 1.392787e-01 2.533026e-01 3.165017e-01 3.764350e-01 4.490818e-01 4.563263e-01 5.192107e-01 4.330512e-01 4.725655e-01 5.006617e-01 4.781240e-01 3.754082e-05 1.360828e-02 2.768088e-02 3.687904e-02 5.793447e-02 7.707005e-02 6.832379e-02 8.561038e-02 7.378623e-02 9.555006e-02 8.674068e-02 9.791116e-02 7.731819e-02 3.730629e-06
<GCONST> 3.298824e+01
<MIXTURE> 20 7.562642e-02
<MEAN> 39
 -1.809941e+00 1.271303e+01 -5.483698e+00 -3.294582e+00 -8.509232e+00 -8.974424e+00 -6.704366e+00 -2.102047e+00 -4.490427e+00 -3.380109e+00 -4.050429e+00 5.247576e-01 8.587124e-01 -9.603231e-02 -1.805206e-01 -3.213194e-01 -2.919647e-01 -2.079183e-01 -3.432205e-01 -2.276774e-01 -2.596500e-01 -1.902132e-01 -2.123368e-01 -1.757516e-01 -1.882528e-01 5.498395e-04 6.593189e-02 7.978932e-02 1.498569e-01 1.159541e-01 1.893934e-01 1.844616e-01 1.865832e-01 1.600403e-01 2.156876e-01 1.376227e-01 1.181549e-01 7.111660e-02 -1.089203e-03
<VARIANCE> 39
 1.022812e+01 2.480987e+01 1.686814e+01 1.313189e+01 1.719735e+01 1.714640e+01 2.864982e+01 2.328419e+01 3.596528e+01 3.725321e+01 4.534813e+01 5.717256e+01 7.728552e-03 6.106528e-02 1.049785e-01 1.686100e-01 2.147594e-01 2.464005e-01 3.283660e-01 3.327047e-01 2.903056e-01 3.457926e-01 2.753995e-01 3.437461e-01 3.535437e-01 3.754082e-05 1.182632e-02 2.159692e-02 2.994094e-02 3.569049e-02 5.425272e-02 6.060466e-02 6.327805e-02 6.624769e-02 8.376539e-02 7.458252e-02 6.539685e-02 7.234275e-02 3.730629e-06
<GCONST> 2.789812e+01
<STATE> 5
<NUMMIXES> 20
<MIXTURE> 1 3.677521e-03
<MEAN> 39
 -5.826071e+00 1.250332e+01 3.933528e-01 -4.098382e-01 -7.973492e+00 -1.562428e+00 7.052738e+00 7.636987e+00 1.610589e+01 1.939128e+01 1.019449e+01 2.058062e+00 8.760052e-01 1.064954e+00 8.519031e-01 7.211524e-01 1.157810e+00 6.327320e-01 -1.943619e-01 8.149356e-01 1.244145e+00 -1.392468e-01 3.198534e-01 2.592998e-01 -2.332887e+00 1.123703e-02 -1.639368e-02 -3.399502e-01 -4.557822e-01 -3.077742e-01 1.118224e-01 -3.803861e-01 -1.996135e-01 7.273950e-02 5.542507e-02 -2.642155e-01 1.036116e-01 2.569454e-01 1.653002e-05
<VARIANCE> 39
 4.597833e+00 6.707388e+01 9.745258e+00 2.393118e+01 1.974578e+01 1.880446e+01 3.554705e+00 1.819707e+01 3.353092e+01 3.227831e+01 3.587365e+01 4.062492e+01 4.679425e-02 4.306481e-01 6.105003e-01 5.571108e-01 3.010080e-01 2.250348e-01 1.602483e+00 2.866091e-01 6.257781e-01 5.007544e-01 1.250385e+00 2.035677e-01 1.346050e+00 5.816147e-05 1.823746e-01 1.885028e-01 1.221889e-01 6.784930e-02 7.159328e-02 9.101669e-02 3.651447e-02 1.120019e-01 3.786084e-02 9.464066e-02 6.871984e-02 3.461115e-01 1.934437e-05
<GCONST> 4.786236e+01
<MIXTURE> 2 3.669896e-02
<MEAN> 39
 -1.883733e+00 4.704925e+00 -5.323956e+00 -2.851877e+00 -6.917011e+00 -6.470031e+00 -4.345882e+00 -4.684107e+00 -4.506609e+00 -3.906577e+00 -5.119164e+00 -1.014612e-01 9.375834e-01 5.576764e-02 -6.430071e-03 -8.497850e-02 -5.587007e-02 -1.063312e-01 -6.355897e-02 3.134560e-02 2.462740e-02 -4.800190e-02 -1.446923e-01 1.242666e-02 -1.589626e-01 -2.258876e-03 1.629249e-01 3.177010e-01 4.204600e-01 3.679160e-01 4.709723e-01 4.322582e-01 4.619824e-01 4.802994e-01 4.111277e-01 3.991653e-01 3.040968e-01 2.305401e-01 -1.030199e-03
<VARIANCE> 39
 1.091422e+01 3.766012e+01 8.964313e+00 1.064638e+01 1.874883e+01 1.986536e+01 1.123249e+01 1.229841e+01 1.524673e+01 1.496994e+01 2.127421e+01 2.353272e+01 3.034388e-03 1.384599e-01 2.530327e-01 4.254318e-01 4.162243e-01 6.138169e-01 6.468574e-01 6.264502e-01 7.983278e-01 6.070262e-01 6.700470e-01 8.316548e-01 4.953766e-01 3.754082e-05 1.897764e-02 4.084046e-02 5.790774e-02 6.178175e-02 8.977873e-02 6.778637e-02 7.994358e-02 8.970232e-02 1.047546e-01 8.982313e-02 1.380498e-01 1.003697e-01 3.730629e-06
<GCONST> 3.599648e+01
<MIXTURE> 3 3.669896e-02
<MEAN> 39
 -1.883733e+00 4.704925e+00 -5.323956e+00 -2.851877e+00 -6.917011e+00 -6.470031e+00 -4.345882e+00 -4.684107e+00 -4.506609e+00 -3.906577e+00 -5.119164e+00 -1.014612e-01 9.375834e-01 5.576764e-02 -6.430071e-03 -8.497850e-02 -5.587007e-02 -1.063312e-01 -6.355897e-02 3.134560e-02 2.462740e-02 -4.800190e-02 -1.446923e-01 1.242666e-02 -1.589626e-01 -2.258876e-03 1.629249e-01 3.177010e-01 4.204600e-01 3.679160e-01 4.709723e-01 4.322582e-01 4.619824e-01 4.802994e-01 4.111277e-01 3.991653e-01 3.040968e-01 2.305401e-01 -1.030199e-03
<VARIANCE> 39
 1.091422e+01 3.766012e+01 8.964313e+00 1.064638e+01 1.874883e+01 1.986536e+01 1.123249e+01 1.229841e+01 1.524673e+01 1.496994e+01 2.127421e+01 2.353272e+01 3.034388e-03 1.384599e-01 2.530327e-01 4.254318e-01 4.162243e-01 6.138169e-01 6.468574e-01 6.264502e-01 7.983278e-01 6.070262e-01 6.700470e-01 8.316548e-01 4.953766e-01 3.754082e-05 1.897764e-02 4.084046e-02 5.790774e-02 6.178175e-02 8.977873e-02 6.778637e-02 7.994358e-02 8.970232e-02 1.047546e-01 8.982313e-02 1.380498e-01 1.003697e-01 3.730629e-06
<GCONST> 3.599648e+01
<MIXTURE> 4 6.411493e-02
<MEAN> 39
 4.523797e-01 1.043063e+01 -2.757896e+00 1.123713e+00 -4.037545e+00 -3.600698e+00 -5.501110e-01 -7.079076e-01 -1.233862e+00 -7.189519e-01 -2.570071e+00 2.873015e+00 9.170329e-01 3.499905e-01 3.806739e-01 5.069684e-01 5.292023e-01 6.242519e-01 5.337089e-01 6.695516e-01 4.135402e-01 6.585705e-01 6.723822e-01 5.469134e-01 2.847472e-01 -8.484932e-04 -1.272522e-01 -2.231093e-01 -2.470400e-01 -3.337966e-01 -2.509589e-01 -3.013717e-01 -2.676331e-01 -3.359831e-01 -2.396049e-01 -1.787517e-01 -1.591665e-01 -2.223882e-01 -1.129990e-03
<VARIANCE> 39
 1.195081e+01 4.403260e+01 1.372387e+01 1.051506e+01 1.792492e+01 1.934469e+01 1.315906e+01 2.111294e+01 1.847153e+01 2.050338e+01 2.765615e+01 3.346413e+01 4.021068e-03 1.898573e-01 3.236896e-01 3.929787e-01 5.156085e-01 6.961243e-01 7.342520e-01 8.098031e-01 9.314867e-01 7.781783e-01 7.820532e-01 7.517434e-01 8.456228e-01 4.147438e-05 2.921574e-02 5.428733e-02 7.956633e-02 8.893638e-02 1.267458e-01 1.379152e-01 1.494978e-01 1.439594e-01 1.393675e-01 1.513783e-01 1.468606e-01 1.384735e-01 3.730629e-06
<GCONST> 4.572657e+01
<MIXTURE> 5 5.497928e-02
<MEAN> 39
 -6.163654e-01 6.099102e+00 -3.888162e+00 -1.084545e+00 -5.144158e+00 -4.356719e+00 -2.304016e+00 -2.788772e+00 -2.307503e+00 -3.385409e+00 -4.115870e+00 -1.706610e-01 9.319704e-01 3.283717e-01 4.717885e-01 5.590130e-01 6.317036e-01 6.521326e-01 6.844562e-01 6.617574e-01 7.068413e-01 6.882913e-01 6.033635e-01 4.966496e-01 4.003577e-01 -3.154035e-03 6.315915e-02 8.143298e-02 1.376984e-01 6.537370e-02 1.660241e-01 9.554034e-02 1.589908e-01 1.146663e-01 1.151936e-01 2.092809e-01 1.343434e-01 7.186894e-02 -8.576823e-04
<VARIANCE> 39
 1.096489e+01 3.716945e+01 1.057131e+01 1.047183e+01 2.030744e+01 1.662080e+01 1.103567e+01 1.270541e+01 1.507968e+01 1.807476e+01 2.562691e+01 2.450798e+01 2.592590e-03 1.287586e-01 2.044592e-01 3.935267e-01 3.814571e-01 6.961086e-01 5.022951e-01 7.267068e-01 6.486802e-01 5.724711e-01 5.049825e-01 5.923380e-01 6.588343e-01 3.754082e-05 1.893942e-02 3.204697e-02 4.727393e-02 5.172596e-02 1.037947e-01 8.258314e-02 1.059786e-01 9.837083e-02 9.158471e-02 9.533248e-02 1.118461e-01 1.003071e-01 3.730629e-06
<GCONST> 3.507250e+01
<MIXTURE> 6 6.760658e-02
<MEAN> 39
 -2.794144e-01 1.461822e+01 -1.313509e+00 -7.274172e-01 -4.780910e+00 -4.019999e+00 -7.540554e+00 -4.904448e-01 -1.006492e+00 -2.677842e+00 2.124508e+00 -1.740810e+00 8.790665e-01 5.449515e-02 -7.976501e-02 2.571233e-02 4.580043e-03 1.045606e-01 -2.196203e-01 5.325718e-02 -5.457290e-02 2.456053e-01 1.004217e-01 -1.439173e-02 -1.250066e-01 -1.835762e-03 -1.318309e-02 -7.037708e-02 1.790665e-02 -9.043346e-02 4.050857e-02 -9.024595e-02 3.804483e-02 9.634443e-03 2.506584e-02 7.925796e-03 -2.839799e-02 4.590502e-03 -1.468995e-03
<VARIANCE> 39
 1.128595e+01 3.487152e+01 1.889226e+01 2.028241e+01 2.121345e+01 2.372252e+01 3.779422e+01 2.304389e+01 2.583137e+01 3.564906e+01 3.878664e+01 3.597306e+01 4.349399e-03 1.685264e-01 2.486208e-01 3.972750e-01 5.108742e-01 5.364044e-01 6.214350e-01 7.168027e-01 7.075316e-01 6.855384e-01 7.257924e-01 6.381951e-01 6.369598e-01 4.214608e-05 3.422982e-02 5.650489e-02 7.574307e-02 9.576464e-02 1.040219e-01 1.285246e-01 1.424962e-01 1.272580e-01 1.406121e-01 1.427050e-01 1.306113e-01 1.191591e-01 4.125081e-06
<GCONST> 4.703357e+01
<MIXTURE> 7 6.760668e-02
<MEAN> 39
 -2.794124e-01 1.461825e+01 -1.313492e+00 -7.274188e-01 -4.780915e+00 -4.019994e+00 -7.540580e+00 -4.904269e-01 -1.006488e+00 -2.677856e+00 2.124518e+00 -1.740839e+00 8.790663e-01 5.449548e-02 -7.976530e-02 2.571383e-02 4.579259e-03 1.045616e-01 -2.196202e-01 5.325828e-02 -5.457268e-02 2.456046e-01 1.004225e-01 -1.439082e-02 -1.250045e-01 -1.835772e-03 -1.318306e-02 -7.037770e-02 1.790661e-02 -9.043359e-02 4.050888e-02 -9.024610e-02 3.804507e-02 9.633636e-03 2.506551e-02 7.925805e-03 -2.839804e-02 4.591002e-03 -1.468995e-03
<VARIANCE> 39
 1.128594e+01 3.487152e+01 1.889220e+01 2.028244e+01 2.121339e+01 2.372249e+01 3.779421e+01 2.304389e+01 2.583121e+01 3.564889e+01 3.878654e+01 3.597280e+01 4.349403e-03 1.685262e-01 2.486206e-01 3.972744e-01 5.108722e-01 5.364026e-01 6.214336e-01 7.168007e-01 7.075300e-01 6.855368e-01 7.257916e-01 6.381922e-01 6.369594e-01 4.214601e-05 3.422982e-02 5.650470e-02 7.574289e-02 9.576447e-02 1.040216e-01 1.285245e-01 1.424960e-01 1.272578e-01 1.406120e-01 1.427048e-01 1.306110e-01 1.191591e-01 4.125079e-06
<GCONST> 4.703350e+01
<MIXTURE> 8 3.780140e-02
<MEAN> 39
 -4.234323e-01 5.059265e+00 -2.109400e+00 1.533575e-01 -1.856293e+00 -2.225155e+00 -9.497383e-01 -1.574580e+00 -1.051476e+00 -4.176303e-01 -1.647599e+00 1.754988e+00 9.492304e-01 -1.338768e-01 -5.183033e-01 -6.190757e-01 -5.580009e-01 -6.349451e-01 -6.573379e-01 -5.486635e-01 -6.688902e-01 -4.343426e-01 -4.953524e-01 -3.989391e-01 -4.072140e-01 -2.018698e-03 -4.784004e-02 -6.006363e-02 -6.823077e-02 -1.306688e-01 -1.390162e-01 -1.074753e-01 -9.965592e-02 -2.050119e-02 -9.933183e-02 -1.091123e-01 -6.161737e-02 -1.009908e-01 -9.486491e-04
<VARIANCE> 39
 8.835387e+00 3.230917e+01 9.002253e+00 7.831081e+00 1.434515e+01 1.798667e+01 9.670811e+00 1.160016e+01 1.324720e+01 1.251752e+01 1.869172e+01 2.082497e+01 2.110182e-03 1.411094e-01 2.701901e-01 3.762949e-01 4.897566e-01 6.051367e-01 5.585666e-01 8.954393e-01 8.092325e-01 8.099476e-01 6.609402e-01 1.053236e+00 6.069378e-01 3.754082e-05 2.358424e-02 5.243916e-02 8.596992e-02 8.135730e-02 1.255626e-01 1.236826e-01 1.160672e-01 1.524170e-01 1.067894e-01 1.099048e-01 1.439455e-01 9.621332e-02 3.730629e-06
<GCONST> 3.806581e+01
<MIXTURE> 9 5.497279e-02
<MEAN> 39
 -6.161143e-01 6.099866e+00 -3.888605e+00 -1.084731e+00 -5.144873e+00 -4.357207e+00 -2.304224e+00 -2.788964e+00 -2.307839e+00 -3.386059e+00 -4.116468e+00 -1.709090e-01 9.319638e-01 3.283218e-01 4.717281e-01 5.589144e-01 6.316423e-01 6.520558e-01 6.843861e-01 6.616426e-01 7.067726e-01 6.882595e-01 6.033278e-01 4.966178e-01 4.003110e-01 -3.154143e-03 6.316708e-02 8.145172e-02 1.377237e-01 6.538720e-02 1.660597e-01 9.556039e-02 1.590225e-01 1.147057e-01 1.152169e-01 2.093237e-01 1.343659e-01 7.189043e-02 -8.577660e-04
<VARIANCE> 39
 1.096677e+01 3.717143e+01 1.057153e+01 1.047311e+01 2.030721e+01 1.662154e+01 1.103580e+01 1.270647e+01 1.508105e+01 1.807751e+01 2.562874e+01 2.450951e+01 2.592781e-03 1.287672e-01 2.044438e-01 3.935453e-01 3.814696e-01 6.961560e-01 5.023335e-01 7.267193e-01 6.486672e-01 5.724991e-01 5.050176e-01 5.923665e-01 6.588671e-01 3.754082e-05 1.894099e-02 3.204862e-02 4.727601e-02 5.173126e-02 1.038027e-01 8.258713e-02 1.059839e-01 9.838200e-02 9.159541e-02 9.534616e-02 1.118537e-01 1.003201e-01 3.730629e-06
<GCONST> 3.507491e+01
<MIXTURE> 10 6.760716e-02
<MEAN> 39
 -2.794177e-01 1.461824e+01 -1.313490e+00 -7.274258e-01 -4.780918e+00 -4.019996e+00 -7.540582e+00 -4.904317e-01 -1.006483e+00 -2.677854e+00 2.124525e+00 -1.740839e+00 8.790665e-01 5.449511e-02 -7.976478e-02 2.571230e-02 4.579357e-03 1.045613e-01 -2.196199e-01 5.325756e-02 -5.457322e-02 2.456046e-01 1.004220e-01 -1.439157e-02 -1.250059e-01 -1.835759e-03 -1.318308e-02 -7.037720e-02 1.790624e-02 -9.043332e-02 4.050896e-02 -9.024561e-02 3.804531e-02 9.634108e-03 2.506578e-02 7.925848e-03 -2.839804e-02 4.591216e-03 -1.468996e-03
<VARIANCE> 39
 1.128593e+01 3.487152e+01 1.889227e+01 2.028245e+01 2.121347e+01 2.372255e+01 3.779427e+01 2.304393e+01 2.583140e+01 3.564919e+01 3.878666e+01 3.597287e+01 4.349400e-03 1.685266e-01 2.486212e-01 3.972745e-01 5.108743e-01 5.364039e-01 6.214352e-01 7.168017e-01 7.075312e-01 6.855394e-01 7.257937e-01 6.381940e-01 6.369591e-01 4.214608e-05 3.422998e-02 5.650505e-02 7.574321e-02 9.576480e-02 1.040221e-01 1.285248e-01 1.424963e-01 1.272584e-01 1.406121e-01 1.427054e-01 1.306115e-01 1.191591e-01 4.125089e-06
<GCONST> 4.703358e+01
<MIXTURE> 11 6.760581e-02
<MEAN> 39
