
\data\
ngram 1=125
ngram 2=160
ngram 3=5

\1-grams:
-1.25007	</s>
-99	<s>	0.02331357
-2.246932	一處	-0.01266722
-2.246932	一萬	-0.01266722
-1.772133	了	-0.002699107
-2.246932	人	-0.01266722
-1.947642	也	-0.01018661
-2.246932	口	-0.01020651
-2.246932	大學的	-0.01266722
-2.246932	小心	-0.01266722
-2.246932	已經	-0.01266722
-2.246932	才能	-0.01266722
-1.947642	不	-0.002719352
-2.246932	不只是	-0.00524286
-2.246932	之外	-0.01020651
-2.246932	六	-0.01266722
-2.246932	令人	-0.01266722
-2.246932	可見	-0.01266722
-2.246932	台北	-0.01266722
-2.246932	台灣	-0.01020651
-2.246932	四	-0.0002218252
-1.647485	用	-0.05318081
-2.246932	目前	-0.01266722
-2.246932	丟棄	-0.0002218252
-2.246932	任意	-0.01266722
-1.647485	共	-0.4014537
-2.246932	各地	-0.01266722
-2.246932	因為	-0.00524286
-2.246932	在去年	-0.01020651
-2.246932	在台灣	-0.01266722
-2.246932	成	-0.01266722
-2.246932	成了	-0.01266722
-2.246932	有六	-0.01266722
-2.246932	有效	-0.01266722
-2.246932	百人	0.009997828
-2.246932	至	-0.01266722
-2.246932	但是	-0.01266722
-2.246932	村	-0.01266722
-2.246932	杜絕	-0.002739601
-2.246932	罕見	0.009997828
-2.246932	里	-0.01020651
-2.246932	防制	-0.002739601
-2.246932	防疫	-0.0002218252
-2.246932	兩千	-0.01266722
-1.647485	具	-0.005182468
-2.246932	其中	-0.01266722
-2.246932	其實	-0.01266722
-2.246932	到處	-0.01266722
-2.246932	呼籲	-0.01266722
-2.246932	咋舌	0.009997828
-2.246932	怵目驚心	0.009997828
-1.471685	的	-0.02516991
-2.246932	的人	-0.01266722
-2.246932	的人數	-0.01266722
-2.246932	的小	-0.01266722
-2.246932	的天	-0.01266722
-2.246932	的風	-0.01266722
-2.246932	的農	-0.01266722
-2.246932	亮起	-0.01266722
-1.947642	是	-0.01018661
-2.246932	是因為	-0.00524286
-2.246932	染上	-0.002739601
-1.647485	毒	-0.5842152
-2.246932	毒蟲	-0.01266722
-2.246932	為了	-0.01266722
-2.246932	為什麼	-0.01266722
-2.246932	為止	-0.01266722
-2.246932	疫	-0.01266722
-2.246932	相關單位	-0.01266722
-2.246932	看	-0.007731777
-2.246932	計畫	-0.01266722
-2.246932	重新	-0.01266722
-2.246932	倍	0.009997828
-2.246932	害	-0.01266722
-2.246932	能夠	-0.01266722
-1.647485	針	-0.4014537
-2.246932	針頭	-0.01266722
-2.246932	偏遠	-0.0002218252
-2.246932	偏僻	-0.01266722
-2.246932	堂	-0.01266722
-2.246932	得	-0.01266722
-1.947642	患者	-0.007711761
-2.246932	情	-0.01266722
-2.246932	情況	-0.01266722
-2.246932	推出	-0.01266722
-2.246932	淳樸	-0.01266722
-1.772133	液	-0.002699107
-1.947642	清潔	0.007441004
-2.246932	這	-0.01266722
-2.246932	這樣的	-0.01266722
-2.246932	速度	-0.01266722
-2.246932	最新	-0.01266722
-1.947642	就	-0.01018661
-2.246932	提供	-0.00524286
-2.246932	散佈	-0.01020651
-2.246932	減	-0.01266722
-2.246932	減少	-0.00524286
-1.55075	滋	-0.02793872
-2.246932	發現	-0.01266722
-1.947642	稀釋	-0.1328759
-2.246932	鄉鎮	-0.01020651
-2.246932	雲林	-0.01266722
-1.947642	感染	0.002331113
-1.55075	愛	-0.7657571
-1.947642	愛滋病	-0.002719352
-1.947642	節	-0.007711761
-2.246932	達到	-0.01266722
-2.246932	截	-0.01266722
-2.246932	漏洞	0.009997828
-2.246932	算	-0.01266722
-2.246932	增	-0.0002218252
-2.246932	增加	-0.007731777
-2.246932	暴	-0.01266722
-2.246932	衛生署	-0.01266722
-2.246932	調查	-0.01020651
-2.246932	學者	-0.01020651
-2.246932	燈	-0.01266722
-2.246932	險	0.009997828
-2.246932	檢視	-0.01266722
-2.246932	雖然	-0.01266722
-2.246932	醫學	-0.01266722
-2.246932	鎮	-0.01266722
-2.246932	攀升	-0.01266722
-1.772133	癮	-0.08452719
-2.246932	讓	-0.01266722

\2-grams:
-2.465383	<s> 不
-2.465383	<s> 台灣
-2.465383	<s> 有六
-2.465383	<s> 但是
-2.465383	<s> 其中
-2.465383	<s> 淳樸
-2.465383	<s> 這
-2.465383	<s> 愛
-2.465383	<s> 暴
-2.465383	<s> 雖然
-1.465383	一處 偏僻
-1.465383	一萬 兩千
-1.942504	了 是
-1.942504	了 倍
-1.942504	了 稀釋
-1.465383	人 看
-1.766413	也 呼籲
-1.766413	也 得
-1.465383	口 節
-1.465383	大學的 最新
-1.465383	小心 才能
-1.465383	已經 達到
-1.465383	才能 有效
-1.766413	不 共
-1.766413	不 算
-1.465383	不只是 共
-1.465383	之外 稀釋
-1.465383	六 百人
-1.465383	令人 咋舌
-1.465383	可見 任意
-1.465383	台北 醫學
-1.465383	台灣 感染
-1.465383	四 的
-2.067443	用 了
-0.8600778	用 針	-0.06577665
-2.067443	用 針頭
-1.465383	目前 為止
-1.465383	丟棄 的
-1.465383	任意 丟棄
-0.2131368	共 用	-0.2365303
-1.465383	各地 偏遠
-1.465383	因為 毒
-1.465383	在去年 就
-1.465383	在台灣 各地
-1.465383	成 四
-1.465383	成了 毒蟲
-1.465383	有六 成
-1.465383	有效 杜絕
-1.465383	百人 </s>
-1.465383	至 目前
-1.465383	但是 學者
-1.465383	村 到處
-1.465383	杜絕 愛
-1.465383	罕見 </s>
-1.465383	里 是
-1.465383	防制 愛
-1.465383	防疫 的
-1.465383	兩千 六
-2.067443	具 之外
-2.067443	具 散佈
-2.067443	具 減少
-2.067443	具 讓
-1.465383	其中 因為
-1.465383	其實 是因為
-1.465383	到處 可見
-1.465383	呼籲 相關單位
-1.465383	咋舌 </s>
-1.465383	怵目驚心 </s>
-2.243534	的 毒
-1.036169	的 針	-0.06577665
-2.243534	的 速度
-2.243534	的 鄉鎮
-2.243534	的 漏洞
-1.465383	的人 口
-1.465383	的人數 在去年
-1.465383	的小 鎮
-1.465383	的天 堂
-1.465383	的風 險
-1.465383	的農 村
-1.465383	亮起 燈
-1.766413	是 怵目驚心
-1.766413	是 雲林
-1.465383	是因為 共
-1.465383	染上 愛
-2.067443	毒 </s>
-0.1249387	毒 癮	-0.3888017
-1.465383	毒蟲 的天
-1.465383	為了 防制
-1.465383	為什麼 亮起
-1.465383	為止 已經
-1.465383	疫 情
-1.465383	相關單位 能夠
-1.465383	看 了
-1.465383	計畫 提供
-1.465383	重新 檢視
-1.465383	倍 </s>
-1.465383	害 計畫
-1.465383	能夠 重新
-0.2131368	針 具
-1.465383	針頭 的風
-1.465383	偏遠 的
-1.465383	偏僻 的農
-1.465383	堂 這樣的
-1.465383	得 小心
-1.766413	患者 其實
-1.766413	患者 清潔
-1.465383	情 為什麼
-1.465383	情況 在台灣
-1.465383	推出 減
-1.465383	淳樸 的小
-1.942504	液 也
-1.942504	液 染上
-1.942504	液 清潔
-1.766413	清潔 的
-1.766413	清潔 液
-1.465383	這 里
-1.465383	這樣的 情況
-1.465383	速度 令人
-1.465383	最新 調查
-1.766413	就 發現
-1.766413	就 增加
-1.465383	提供 毒
-1.465383	散佈 愛滋病
-1.465383	減 害
-1.465383	減少 共
-0.9569878	滋 </s>
-2.164353	滋 的人數
-2.164353	滋 疫
-2.164353	滋 推出
-1.465383	發現 不只是
-0.5590478	稀釋 液
-1.465383	鄉鎮 不
-1.465383	雲林 一處
-1.766413	感染 愛
-1.766413	感染 愛滋病
-0.07918125	愛 滋	-0.1710382
-1.766413	愛滋病 的人
-1.766413	愛滋病 毒
-1.766413	節 節
-1.766413	節 攀升
-1.465383	達到 一萬
-1.465383	截 至
-1.465383	漏洞 </s>
-1.465383	算 罕見
-1.465383	增 的
-1.465383	增加 了
-1.465383	暴 增
-1.465383	衛生署 為了
-1.465383	調查 就
-1.465383	學者 也
-1.465383	燈 台北
-1.465383	險 </s>
-1.465383	檢視 防疫
-1.465383	雖然 衛生署
-1.465383	醫學 大學的
-1.465383	鎮 成了
-1.465383	攀升 截
-0.7351391	癮 患者
-1.942504	癮 感染
-1.465383	讓 人

\3-grams:
-0.30103	共 用 針
-0.1760913	用 針 具
-0.1760913	的 針 具
-0.39794	愛 滋 </s>
-0.1760913	毒 癮 患者

\end\
